{
  "version": 5,
  "learning_rate": 0.001,
  "initial_learning_rate": 0.008,
  "optimizer": "adam",
  "optimizer_params": {
    "gradient_clip": 1.0,
    "weight_decay": 1e-05
  },
  "architecture": [
    {
      "type": "DenseLayer",
      "input_size": 63,
      "output_size": 128
    },
    {
      "type": "LeakyReLULayer",
      "alpha": 0.05
    },
    {
      "type": "DropoutLayer",
      "rate": 0.2
    },
    {
      "type": "DenseLayer",
      "input_size": 128,
      "output_size": 64
    },
    {
      "type": "TanhLayer"
    },
    {
      "type": "DropoutLayer",
      "rate": 0.1
    },
    {
      "type": "DenseLayer",
      "input_size": 64,
      "output_size": 26
    },
    {
      "type": "SoftmaxLayer"
    }
  ],
  "dense_layers": [
    {
      "weights": [
        [
          -0.12418667144945511,
          0.078468187145567,
          -0.14002772069360334,
          -0.33322458385085973,
          0.14124197463031232,
          -0.1537131731369713,
          0.31590869708178965,
          -0.22086293973222018,
          0.21382583565079985,
          -0.2331557764835375,
          0.1363091509894196,
          0.13022719229647237,
          -0.11546527921887147,
          -0.20059112974589952,
          -0.03254318216317135,
          -0.19920984541035613,
          -0.5203057403650635,
          -0.016267004810345105,
          0.0392904790253257,
          -0.3151861409408592,
          0.08525856331955498,
          0.13490368731755675,
          -0.5616241733848486,
          -0.007232991462948687,
          0.5204491971935423,
          0.13455834909927394,
          -0.08489598155920662,
          0.1275357828573603,
          0.42141621468610024,
          -0.3689657541991015,
          0.12536418870899152,
          0.08447040626243348,
          0.39366079490096184,
          0.34298743452801195,
          -0.13820529984298913,
          0.014746812891362471,
          0.3177649641957817,
          -0.29135865663947763,
          0.2055423366936926,
          -0.4342583291277854,
          0.23263032648298304,
          -0.5696246698824622,
          -0.24434175527158353,
          0.10340168257523683,
          -0.3432725713955754,
          -0.13103766876412085,
          0.1785130497589968,
          -0.057589211894433286,
          -0.5604927798654072,
          -0.5394752579644327,
          -0.1356392271171022,
          -0.022471563908045222,
          0.029701967391041376,
          0.011687388990788429,
          0.3545563533879299,
          -0.22793704309814455,
          -0.43216957798891503,
          0.14159666292601558,
          -0.6440419143833518,
          -0.17620981542918085,
          0.603335876383803,
          0.1736480935482933,
          0.03247717948350145,
          -0.4489172033057099,
          0.0780178218279635,
          -0.075193481884411,
          -0.12519217022385304,
          -0.27183346561648636,
          -0.4952543321905754,
          -0.1298718032319801,
          0.07343820771396668,
          0.5001697946979234,
          -0.009657141740019004,
          -0.3313615894982028,
          0.006252955154674,
          -0.24132761062768632,
          0.3382370509449539,
          0.33084705830677663,
          -0.19593410251504698,
          0.09462653577352945,
          0.08835522662930312,
          -0.5325808644492142,
          -0.2833484991512425,
          0.3660306115204359,
          -0.2991214600923637,
          0.13129484398068342,
          0.514305626408167,
          -0.11511918996302592,
          -0.05751264546925321,
          -0.3071644606879224,
          -0.25653695454299996,
          -0.06060572259616899,
          0.024212985789460666,
          0.21848936637672492,
          0.04446955788756224,
          -0.15018490945327775,
          0.41212483021450586,
          -0.14461875169728058,
          0.25947641029425883,
          -0.3228374752107433,
          -0.2273814550437478,
          0.18969745126101997,
          0.11209891995805826,
          0.2651953320891815,
          -0.10852110541360445,
          -0.010698826376475814,
          -0.29243730943267093,
          -0.2558722738297145,
          -0.42323857642409063,
          0.5639188415333757,
          0.16823107145463245,
          -0.29842198230763767,
          0.30444418281153396,
          -0.4766030353843069,
          0.2846949207052966,
          -0.06576735896362731,
          0.29553773383625176,
          0.13053853919475306,
          0.3279581320364528,
          -0.9983750492286394,
          -0.1692912797986133,
          0.343520192072105,
          -0.10738749898591571,
          -0.2752160186130597,
          -0.6390487433753146,
          0.034647879934417654,
          -0.05660232813829333,
          0.4862626092825475
        ],
        [
          0.34955464682104603,
          0.17926260841159203,
          0.08773543355563031,
          -0.2917909530749831,
          -0.10882813839001257,
          0.009173255703526744,
          -0.16097710804305973,
          -0.5722111659030023,
          -0.17891844154306744,
          -0.09373155096890531,
          0.21408189140168116,
          0.1335032796204557,
          0.12812759468756577,
          -0.32132004292914884,
          -0.24654208280718862,
          0.4433660944246101,
          0.08802740186152597,
          -0.2191428841558499,
          0.16811357549650055,
          0.0664634544332782,
          -0.16002708145370423,
          -0.26713938138315924,
          -0.11275480184950451,
          -0.06706659066000935,
          -0.33943015904930846,
          -0.2022812419027316,
          -0.38260270925840273,
          0.2646007707041624,
          0.09363512008749113,
          -0.3127824512768278,
          -0.14529742701474416,
          -0.047218963312901235,
          -0.00973663319801167,
          0.21423647690443218,
          -0.3107753718879123,
          -0.007125165660903537,
          0.2706315402704142,
          -0.29360990634532197,
          -0.21397372305892595,
          -0.032940949359874294,
          -0.6564487264281157,
          0.3040166991675976,
          0.3200343489844787,
          0.3775925416087885,
          -0.3157301027872367,
          0.22793103218182584,
          0.3232102679783807,
          -0.08439684050709287,
          -0.2991428797792588,
          0.3320756280711477,
          0.2638759433565449,
          -0.2142811329819768,
          0.35040615378924267,
          -0.29213047802302333,
          0.20135198300428578,
          -0.12764012916890327,
          -0.2913225839436623,
          -0.16361121846515403,
          -0.23698051772879725,
          -0.31941947877018073,
          -0.012685926105521581,
          0.11004732848234693,
          -0.016414099988883893,
          -0.45178065620271307,
          0.12086168013741676,
          0.2860923847645071,
          -0.0784654681570335,
          0.27378364916183695,
          0.6069536764674783,
          -0.13218845729475562,
          0.14837194476634313,
          0.009071167919937832,
          0.13286272372522348,
          0.3348604267367629,
          0.09546465473326553,
          -0.1118583928517711,
          -0.31043135510381337,
          -0.3329132985726255,
          0.07539815749318007,
          -0.14219214420835583,
          0.007635989397295757,
          0.1506886279607714,
          0.46213778089408014,
          0.1882375649609424,
          -0.30126220360564954,
          -0.1120525649531357,
          0.6365669679667724,
          0.09776105895710044,
          0.25699749529127003,
          0.18246724982099355,
          -0.24316427306407448,
          -0.14699066271576156,
          0.029407100450493117,
          0.06740101595375232,
          -0.25860797148570613,
          -0.46879904854135956,
          -0.3932288660569558,
          0.13625439158048117,
          0.29218151081006943,
          -0.010768936008937397,
          -0.040953678559446295,
          0.19331925395910807,
          -0.20571710239115357,
          -0.2634912686509217,
          -0.21273441211659275,
          -0.002284227894595583,
          -0.3841069324331129,
          -0.21036733489819154,
          0.15251519768552846,
          0.009750769066086585,
          -0.09435865081186037,
          -0.16046231476928682,
          -0.4529344817989093,
          -0.10120539475912446,
          0.4081249150709393,
          -0.0841365877549052,
          -0.030935514001382048,
          -0.012825052287309732,
          -0.10627731692761823,
          -0.2196136281747278,
          -0.15159156130043297,
          -0.34841764608023956,
          -0.15738132859470103,
          0.1588679650240475,
          -0.33941958855039733,
          0.1362895697638709,
          0.431649885001068,
          0.22203493520980153
        ],
        [
          -0.11555874515085982,
          -0.07816085718976173,
          -0.2836081762880886,
          0.07646798093986798,
          0.15215071571774175,
          -0.07354351920738146,
          0.0320506095215021,
          -0.5063124258549992,
          0.08767432910769841,
          0.15867792008216214,
          0.06064450188384763,
          0.5342044505627935,
          0.070574069814557,
          -0.6527744457757134,
          0.08157987753278101,
          0.06250322713839351,
          -0.3396580074178783,
          0.08670446999596204,
          -0.1428637056919738,
          -0.1550075005121332,
          -0.1899598495972294,
          -0.165624816851488,
          -0.9027091481275838,
          0.03742464036436368,
          -0.0031601887662423334,
          -0.33363814149397214,
          0.0865256591515285,
          0.03549601170107543,
          0.034331088921964334,
          -0.03191849613085009,
          0.1364101447099992,
          -0.6083241851913643,
          -0.3545289774489333,
          -0.04164941210133243,
          -0.2616592395418254,
          0.11272815790133936,
          0.4677058926351912,
          -0.13954051353445507,
          0.04820615678573906,
          0.07647656833843124,
          -0.2921903086625076,
          -0.28443209057690383,
          -0.10497378601603839,
          0.09859389573122175,
          0.3719353806659027,
          0.1707302639906059,
          0.16037491612344795,
          0.11018820692512102,
          -0.46191612736426363,
          -0.3477836035962031,
          -0.07931011776591948,
          0.1248804550915933,
          -0.06700946034835609,
          -0.032726765480247604,
          0.37337681557110713,
          -0.4215576389301855,
          -0.2992187346329359,
          -0.356199737762219,
          -0.030392943269798498,
          0.21019769383067233,
          0.4533964775641982,
          0.19309184754249029,
          -0.05364947023767878,
          0.0740323608806745,
          0.15341904995449462,
          0.28908731442443586,
          -0.12506221401404455,
          0.1063060930920072,
          0.23482915337825586,
          0.5443193087726872,
          -0.579537387372635,
          0.356700716613497,
          0.22085444401463927,
          0.3077991584846813,
          0.2103690717083228,
          -0.060454122392546605,
          0.040668619281938614,
          0.20685999327849303,
          0.1580154968137343,
          -0.029485052919174786,
          -0.06378706305640455,
          0.15851370315182825,
          0.4365261865128048,
          -0.23768370461235133,
          0.1026968961474524,
          -0.12037052915399837,
          0.36274422337077517,
          -0.042323799842941386,
          0.24864795887923108,
          0.046450584279196655,
          -0.06205241470771924,
          -0.18472822668869424,
          -0.19286383621193515,
          0.11045762633874313,
          0.051449249207032706,
          -0.2526132969583274,
          0.3160256254339173,
          -0.22109600694911946,
          0.2550162668093447,
          -0.31796998549380245,
          0.6209927662954707,
          0.04261400069373801,
          -0.2606109542029418,
          -0.40250993416169906,
          0.050018935816097766,
          -0.060315491409463316,
          -0.0591907444558951,
          -0.09147290245543434,
          -0.49751470264362174,
          0.14989511862993674,
          -0.2576904156880288,
          0.033854361285018564,
          -0.7735578363587401,
          -0.05629567202406668,
          0.3177920219609125,
          -0.22350907144552912,
          -0.01802475064967263,
          -0.00598954799196483,
          -0.17837151051701047,
          -0.4175237847328061,
          0.12679949597331347,
          -0.19041390103961353,
          -0.2585219276521724,
          0.1543320734654109,
          0.1823335582449717,
          -0.2020441748815919,
          0.2954875172085533,
          0.2063666650987316
        ],
        [
          0.04137226470005492,
          -0.3236964970302575,
          0.0854232502251852,
          -0.2700372963354367,
          0.10241484639567765,
          -0.1042734324492079,
          0.020363540808628375,
          -0.038643221710530466,
          -0.09683594186701218,
          0.21444700668688854,
          0.299891262800136,
          -0.16832805319455932,
          -0.012818426980423134,
          0.04870422457092822,
          0.1445442254034137,
          0.32095520148996387,
          0.3601392902279322,
          -0.3113607563233486,
          -0.04111971058189999,
          0.4299671230130783,
          0.23490753000892214,
          -0.18594557662594022,
          -0.14524556887199477,
          0.0830990014740847,
          -0.1593943737639707,
          -0.3403251060748153,
          0.03972932906321615,
          -0.14183081642183015,
          -0.08799756937324255,
          -0.13041581004213898,
          -0.1364506579381322,
          -0.7031078240627813,
          -0.23893612157653876,
          0.1175419764712944,
          0.3279838885129491,
          -0.7004649578000447,
          0.08248272928863737,
          0.0314715231289704,
          -0.23687581266024169,
          0.2991457131047374,
          -0.1753677346083941,
          0.4505147742790007,
          -0.19685609858193714,
          -0.11370301037461795,
          0.08084855282141017,
          -0.14148261550587105,
          -0.25903416254989914,
          0.15017678918303637,
          -0.2800345251768533,
          0.38395693004446685,
          0.1494345070659416,
          -0.4120985650907264,
          -0.4580343947278093,
          0.22486628442401707,
          0.22051245232668829,
          -0.1299264364656284,
          0.14100265750709132,
          0.043775894269953035,
          0.45598822738872696,
          -0.13338908937017435,
          -0.12664378834658332,
          0.15834149555525254,
          0.2557003965866484,
          0.1252656095616647,
          0.11650667447411608,
          0.25408723787097504,
          0.018955082746693382,
          0.06036596324172299,
          -0.3084572744490413,
          -0.444048701036337,
          -0.25801783161799213,
          0.12352876601999561,
          0.1877201984561602,
          -0.15268287700509908,
          -0.06119532428827904,
          -0.23919511327795637,
          -0.5301888723922218,
          -0.2935322056711644,
          0.06727112983971273,
          -0.0330937087244159,
          -0.02283989117224925,
          0.12009372907922236,
          -0.11735824518556846,
          -0.1311942108002038,
          0.4938881181620388,
          -0.23266202722879284,
          0.2925183854190439,
          0.12052387415471338,
          -0.42713181084326424,
          0.00838848004420904,
          -0.05897772159499097,
          0.2788864289802557,
          -0.11822888766820565,
          0.1377817049407804,
          0.2433297419915891,
          0.16280582836111135,
          -0.35298867363981296,
          -0.4619615085845804,
          0.1504394876937861,
          0.238226631741002,
          0.49117186529666446,
          0.43150285226804297,
          -0.08916633911292628,
          -0.15679285637259105,
          -0.05648275095792941,
          0.1269993201188192,
          0.05406059175502564,
          -0.13804627536293837,
          -0.46343566044372964,
          -0.0925656367337322,
          -0.28880339264504135,
          -0.1252523365015935,
          -0.6665072461699788,
          0.11043638583130322,
          0.4164535855974033,
          -0.2664511546179339,
          -0.0421638066324512,
          -0.4600747980752018,
          -0.5037352117541102,
          0.17812262593653355,
          -0.11643883565620992,
          0.2860890316097328,
          -0.5839276942768521,
          0.01804182661038752,
          -0.04388504771120398,
          0.058579326944938934,
          -0.0708002142709846,
          -0.08376192692121139
        ],
        [
          0.2901724825160756,
          -0.16602555038295275,
          0.067128745847544,
          0.03357331935380993,
          -0.6166754295980965,
          0.12331153882755627,
          -0.48866019564283425,
          -0.13911340893410287,
          0.13093906159139143,
          0.07480753893816747,
          0.1403647306787835,
          -0.000805377129180661,
          0.10883248431042747,
          -0.3334888317831823,
          0.31368350085671,
          -0.13186764540381984,
          -0.26901365126038224,
          -0.23692209856359378,
          -0.3109391547792187,
          0.3464146409177465,
          -0.42994905714057563,
          -0.2960166136054617,
          -0.03586400422922848,
          -0.1882671930649883,
          0.10846594814561293,
          0.20906296838861718,
          0.20917331849991086,
          -0.4367981384703512,
          0.15874652390972632,
          0.23159713624535502,
          -0.24634806047724322,
          -0.5385315259748805,
          -0.06523533604294092,
          0.13510144905937857,
          0.23511429671276585,
          -0.4134236585426569,
          0.3339997717717538,
          -0.2893940179864894,
          0.09301321719705212,
          0.09016661585502045,
          0.15258492351752598,
          0.3787482160909292,
          0.12559278998394188,
          0.1106060094844394,
          -0.6744147204518346,
          0.10109148553559573,
          0.3655659979208035,
          0.13086377899511556,
          -0.5664800908801751,
          0.11506285846831185,
          -0.1424880108909536,
          -0.14727040238946784,
          -0.0888388725898364,
          0.2785996933376428,
          -0.41419819583032547,
          -0.04881329922569325,
          -0.08572877117221041,
          0.4131821632757247,
          -0.025451457283792188,
          -0.19236820107503516,
          0.16703668493434934,
          0.3550696696040664,
          -0.04420437847766401,
          0.0016289875921239746,
          0.05221015697360219,
          -0.3837915507821627,
          -0.06726639539098425,
          0.3787865876286063,
          -0.3507931977745859,
          -0.291452808113215,
          0.24772980070687206,
          -0.3927452750435966,
          0.11125982095339049,
          -0.4887166812451405,
          -0.43249960278538174,
          -0.14340896607860273,
          0.10183956131395104,
          -0.20245215312360773,
          0.1199384496270084,
          -0.7401653203322947,
          -0.10521287933739445,
          0.24966072799740907,
          -0.08189591210121437,
          0.320909484226836,
          0.14265397774966596,
          -0.16314417120229338,
          0.22863540014786352,
          0.07335748458343856,
          -0.6153858028738235,
          0.23895958775867104,
          0.12344939760781785,
          0.2693261434641391,
          0.22069772170368002,
          0.05257867457795105,
          -0.08459839842429584,
          -0.061595236845412,
          -0.17694036630256657,
          -0.48123001276751437,
          0.12271053038570173,
          -0.09844115062308921,
          0.10402969217298899,
          0.21298867085959428,
          0.412944794513497,
          0.011829247095831257,
          0.10767349098985203,
          -0.6538099198812195,
          0.1419305110569224,
          -0.05241703649899674,
          -0.44014803563624977,
          -0.0708382627672408,
          0.14110079200424913,
          -0.41284778707882325,
          0.06593433278679227,
          0.4663399997360736,
          0.11178650558103137,
          0.23468722851270635,
          0.2869400201890202,
          0.16942649996741732,
          0.2883806365225023,
          -0.0055615603133888775,
          0.14527209676457606,
          -0.38379569761278703,
          -0.4950624665004945,
          -0.40629656305968065,
          -0.3565982477718335,
          -0.27486115171880615,
          0.007196980630132178,
          -0.17880578748239323
        ],
        [
          0.21867131871465548,
          0.29287905133772585,
          0.16479112215160993,
          -0.1726104433909581,
          -0.12467456101183544,
          -0.0020986214432674884,
          0.1935292332881011,
          0.030203847719822395,
          -0.04216887392021488,
          0.20559598501635928,
          -0.2847361024135065,
          -0.6024017712114694,
          0.3995369250717902,
          -0.3553459802477222,
          0.15030852963077884,
          -0.5615677131210267,
          -0.38910193881273886,
          -0.017087880222570125,
          -0.2588450359499013,
          0.02020979653034182,
          -0.5358997602377977,
          -0.30211986447642447,
          0.3284407237120939,
          -0.22235860615058184,
          0.12603819644960923,
          -0.1472754804600728,
          0.012187711395517185,
          0.15689476252868723,
          0.0809354019563006,
          0.09849512713415978,
          -0.13816534250193602,
          0.08484988923266232,
          0.05769779667625935,
          -0.3873888084819529,
          -0.08514351804569938,
          -0.4149649790907371,
          0.21288102576915627,
          0.06933463448882826,
          -0.09693377299708657,
          0.08544271673757042,
          -0.32014062810329863,
          -0.11342679545298288,
          -0.39546201142050547,
          -0.1542525909798872,
          -0.7085057152207286,
          0.11085959445664446,
          0.41209654333091744,
          -0.11403881398331277,
          -0.18599303376737977,
          0.24308679602605182,
          0.16180651815440783,
          -0.027016638204785805,
          0.10292255700109033,
          -0.18955760752796816,
          -0.46901430257915133,
          0.07873552446282389,
          0.17153960110179742,
          -0.006213903662223881,
          0.02636345235848163,
          -0.24080764122338222,
          -0.21378530545797428,
          0.3256709063979849,
          0.22571085787546036,
          0.17752595231602247,
          0.21135940214852933,
          -0.3928401968333015,
          0.025473783395667637,
          0.24626517696886702,
          -0.10393125196898693,
          -0.5050482662970056,
          -0.3149774877477219,
          -0.2803911311250654,
          0.23730232461085496,
          0.12783253544112405,
          -0.3560760088209264,
          -0.2958185420490188,
          -0.5989924622354631,
          -0.38503265129312436,
          -0.27462050508859437,
          -0.6197437611660527,
          -0.1457534557916813,
          0.42894286982377533,
          0.40337677057878146,
          0.4466775808024123,
          -0.0012853761860968068,
          0.022487032832759567,
          0.11410737062563375,
          -0.2857139307175602,
          -0.02463285201591549,
          0.41112967881545426,
          -0.06514642000560561,
          0.2610207938491232,
          0.1294599700128089,
          -0.35022209376256463,
          0.07453257959160785,
          0.07414118717103611,
          -0.18153059562320933,
          -0.33618173584863686,
          -0.061961585555844766,
          -0.0751433760670858,
          0.035128179597610255,
          0.22900271936098082,
          0.019833123031346784,
          0.12983797783193926,
          -0.48232544994143134,
          0.027946387469176156,
          0.06271695247114199,
          0.29848429394966186,
          0.15130678139825465,
          -0.2058986025469748,
          0.09429448520033935,
          0.23641351802681335,
          -0.4403456201002654,
          -0.029585889893031615,
          0.27355373618190465,
          0.0626257553585791,
          0.17850166734065012,
          -0.19828589997182716,
          0.0446748490011462,
          -0.2643075454983305,
          0.1403357917365967,
          -0.465748786675294,
          -0.034622587487579126,
          -0.24519402994343922,
          -0.27197663676693096,
          0.41283452193969156,
          0.10143486117759824,
          0.2090102987429144
        ],
        [
          -0.18366748886055756,
          0.04386331099174311,
          0.28431515701813515,
          -0.14118237499011513,
          -0.1552559687829066,
          -0.22674024614103758,
          -0.34753493006561514,
          -0.2090911692684261,
          0.413408623091678,
          0.13062398586261173,
          -0.13302080047037237,
          -0.1570880845346476,
          0.29071005256740046,
          0.08693641713627996,
          0.3113776992158632,
          -0.15552117160384077,
          -0.41503926506553346,
          -0.18040325093116905,
          0.26840690134974604,
          -0.4491614973795599,
          -0.5552619779881381,
          -0.2516563423245234,
          0.21809731706076368,
          -0.2961950127027723,
          0.22975145192191126,
          0.025290788036730228,
          -0.10777790734246856,
          0.11183808093062295,
          -0.07975091078914738,
          0.0486184944883312,
          -0.04348464156115196,
          0.16137339892316677,
          -0.06633100884106588,
          0.09180329600959025,
          -0.11979442738589069,
          0.4872566335876916,
          -0.02161173916622061,
          0.049961259506224646,
          0.06674472251747054,
          -0.10757557668742317,
          0.39875990058714317,
          -0.3162859110352249,
          -0.10110479502013785,
          0.11854881339948974,
          0.2600142553423741,
          0.4288702372237738,
          -0.129184888543851,
          -0.4324811709642356,
          -0.14497846413967888,
          -0.6169324785616986,
          0.1277384742381542,
          0.04684543192238359,
          0.013658989170419565,
          -0.012977008219997747,
          0.16801216869772403,
          -0.06457292294670602,
          -0.11551071318624882,
          -0.03827051791934082,
          -0.1517476782415141,
          0.16849587126574708,
          0.135229696168603,
          0.1506155160060407,
          0.3145771940336711,
          0.2229317260428848,
          -0.15536060900475035,
          -0.08823552894989335,
          0.08932571624910818,
          -0.16919516216959388,
          0.1066341485660347,
          -0.1730795647944811,
          -0.09707571456231727,
          -0.13178546001982802,
          0.3867059015026084,
          0.2726717646612728,
          0.10285848217076896,
          0.1444395055035603,
          0.26682011064332345,
          0.2343948080885569,
          -0.22846862188955303,
          -0.2723355673630342,
          -0.05549455104396411,
          0.34092147950040824,
          0.06773031113021316,
          -0.24901319846633493,
          -0.8888138145737705,
          0.15362464002779055,
          -0.34574718242394337,
          0.1350575080967876,
          0.1440705528615927,
          -0.38752193852222017,
          0.06809082879311722,
          0.4492800198386858,
          -0.03275198619170343,
          -0.20070948406568023,
          0.4680458036100131,
          0.4112296406772956,
          -0.30057995144651234,
          -0.023239834045871193,
          -0.26097056238371563,
          -0.08201501626881989,
          -0.07800474895984592,
          0.07145914046578791,
          -0.2236588248351764,
          -0.2185163638046087,
          -0.3507801162379121,
          -0.5086996760806569,
          -0.10988888827599706,
          0.6551634223193716,
          -0.19067685239784976,
          0.20983347227928123,
          -0.03920650634524095,
          0.2786459886727004,
          0.04943613375375355,
          -0.05831018940160279,
          -0.5885353826241991,
          -0.01839452094678884,
          0.11173355601779922,
          0.47625935677386527,
          0.15823679282212605,
          -0.0426382831006763,
          0.1317689062980393,
          0.20543799973804913,
          0.305294358598401,
          -0.4049084451327163,
          0.03507680881676191,
          0.27021079326013764,
          -0.14169371982110351,
          0.005326933733570819
        ],
        [
          -0.19250171364066035,
          -0.10844125630419105,
          0.06251950960264265,
          0.0899291667663474,
          0.22362866342441207,
          -0.06026324770944453,
          0.3730085161005983,
          -0.34267503065658567,
          -0.19740354623414827,
          -0.08840438798044059,
          -0.31457366900968353,
          0.16180667694152281,
          -0.09786570291929607,
          -0.4617645305520744,
          0.09881658706614535,
          0.19958021514858498,
          -0.21946464675308325,
          0.418741535671665,
          -0.23428580652778325,
          -0.16812523269086635,
          0.17315220336014547,
          -0.1349211043837105,
          -0.21926064353809724,
          -0.10734831913619727,
          0.07643921959733765,
          0.13383719982000591,
          -0.3148747856267468,
          0.43102773099276737,
          0.10095392401282326,
          -0.013781897604139339,
          -0.2383087122408074,
          0.2912269597085628,
          0.19282463929839336,
          -0.13505000408565748,
          -0.17550177592842048,
          0.15612928740021773,
          -0.0893855699479154,
          0.6652586345547326,
          -0.04375680450636102,
          -0.02130267755962547,
          0.05124554250826989,
          0.42354208196720683,
          0.1254935113097798,
          0.05592295686196265,
          0.3168046133845876,
          0.061313670554776364,
          0.47428017863964866,
          0.10785669052567774,
          -0.3830651174922062,
          -0.13305825660576703,
          0.18398917937501721,
          -0.2655614552376578,
          0.0003404750989380612,
          -0.1310399386502064,
          -0.015709382182117343,
          -0.05998987203458925,
          0.05662575210290073,
          0.37430962290338105,
          -0.44113435276545876,
          0.058669014735012764,
          -0.21297320198307082,
          0.050356247075435956,
          -0.012276394558089529,
          0.015919395481841354,
          -0.2421408317631771,
          -0.22371769177156736,
          0.19859810149849688,
          0.020773460303527624,
          -0.36688752352716814,
          -0.18232882448024731,
          -0.1546818305417456,
          0.016986683252500925,
          -0.040687121143289005,
          0.24190671002412736,
          -0.12046174744770717,
          -0.29404634612821495,
          0.2052780662448121,
          0.4214918526184225,
          -0.22942521340478142,
          0.055729984404779956,
          -0.21216509067484873,
          0.10303779266887811,
          -0.16153306666049508,
          0.10040466072205377,
          -0.4416375569859611,
          0.30721161473094355,
          -0.1192485059936762,
          -0.14448498284516878,
          -0.06607859225358596,
          0.3201338944569644,
          0.06026554365182931,
          0.2247237685215358,
          0.1464093517310796,
          -0.000781582101212521,
          0.20366222622173513,
          -0.4701977779793653,
          0.13312323303445803,
          -0.16792267132817862,
          -0.10997928636020102,
          -0.43662082107966715,
          -0.06108479110249682,
          -0.01561363643352891,
          0.34418974737384167,
          0.5291096792549966,
          -0.11465762746744976,
          0.17917364170433145,
          -0.16256066413648812,
          0.09370073032940159,
          -0.280012817545563,
          -0.06374451523271532,
          0.13595749510594127,
          -0.46834411632169864,
          0.18935611486610515,
          0.11298665954647581,
          0.013546067024600818,
          -0.11532210232296428,
          0.01753962269209456,
          0.2397042421622097,
          0.12950329697380406,
          0.08537037760003505,
          -0.22371613885926694,
          0.1047924113534405,
          -0.2483267712101708,
          0.1716051172274346,
          -0.21079974885862,
          -0.14435357229638418,
          0.25152141500362785,
          -0.2281452308290163
        ],
        [
          -0.2377918748087854,
          0.04170905726194158,
          -0.0717554257701047,
          -0.04388296568770429,
          -0.02481081660152158,
          -0.1501321721162701,
          -0.1739632510672992,
          -0.2939527283801178,
          0.030862928657824324,
          -0.14373656514983116,
          -0.4906509775594143,
          -0.23492253708482444,
          -0.009499851722769384,
          -0.403209824668477,
          0.06842839751640334,
          -0.8974163954593263,
          -0.20939646492793534,
          -0.011912274073314041,
          0.22056638195235279,
          -0.28847619842777766,
          -0.038129163204823936,
          -0.5820978487816316,
          -0.5700522396842185,
          0.033337345256192294,
          0.007412712242356792,
          -0.2527688287087327,
          0.14030763888147552,
          0.43654531236780136,
          0.04774974588544619,
          0.11232263531963858,
          -0.08985286837143608,
          0.006705746525371174,
          -0.08088715797683453,
          -0.28190224575243433,
          -0.08879093143825288,
          -0.3057910542731332,
          0.3235442325856828,
          0.34881227340835347,
          -0.45737645499651447,
          0.03237158689914077,
          -0.619504380351327,
          0.19982353850151305,
          -0.09950428035271439,
          0.25413786663842786,
          -0.11870398075213426,
          -0.02535403665979242,
          0.43190529157983026,
          -0.2686196749664397,
          -0.11151701737142765,
          -0.2432540750476667,
          0.4552195002256982,
          0.2067979650654374,
          0.40733156391469355,
          0.05520677479435924,
          0.3956762561309173,
          -0.040934639487236246,
          -0.30016795460139445,
          -0.6091599869275787,
          -0.32591231343151306,
          0.04440705817396273,
          -0.10136508175416079,
          -0.13288421117150392,
          0.08493853709451432,
          0.20106797906689966,
          0.15712515887550882,
          -0.5035412790101957,
          0.29424935346674774,
          -0.5125667597955014,
          0.6595965082808999,
          -0.19151187087915925,
          -0.029946249675892538,
          -0.03699668593804164,
          -0.03892795092574275,
          0.2829838905959049,
          -0.032039443206164246,
          -0.18614452706895043,
          -0.3455637202478107,
          -0.3925027389030909,
          -0.12015329678158619,
          0.07403470756602543,
          0.07941857546395335,
          0.21293236535018448,
          0.3967006822936936,
          0.14668287358101012,
          0.13614212640185622,
          -0.4376759397670672,
          0.3789403204462153,
          -0.42110706886701305,
          0.0337906456006865,
          -0.044026228461493386,
          -0.15714971835325175,
          0.17511687019021555,
          -0.28943302871635473,
          0.11186537145330706,
          -0.03636159781874134,
          0.1879930342469056,
          -0.2216498818640053,
          0.2913321228866139,
          0.0019037995864520732,
          -0.259852123314026,
          0.039887724784468497,
          -0.3823531386392829,
          0.44060125856666815,
          0.46765037659293307,
          -0.4537667026715644,
          -0.8147960542449515,
          0.374303011232159,
          0.06944163745805929,
          -0.09891773622762194,
          -0.10196489125386424,
          -0.0005600555684642995,
          0.4232305661418213,
          -0.654750871902715,
          -0.30284383235142226,
          0.09595152752769728,
          -0.3240218411294404,
          0.27976132020862843,
          -0.008387714120925949,
          0.02518613998078855,
          -0.7426579927248577,
          -0.3073464524851862,
          -0.33688981209126445,
          0.08951091369885104,
          0.00849126676270702,
          0.08938483591943114,
          0.007070020127532123,
          0.119517491854032,
          -0.15083704846220655
        ],
        [
          0.01609295606040478,
          -0.10042289371134666,
          0.11553468461242056,
          -0.19955961550496737,
          -0.28455521143036155,
          -0.2406401019720894,
          0.0015282229911930806,
          -0.2053937745271255,
          -0.021054677432130027,
          0.07537686651032588,
          -0.03895698687335558,
          -0.06733631173075116,
          0.17131581176127814,
          -0.1716681505494479,
          0.13742007920078286,
          0.0731775073760518,
          -0.3665794527506762,
          -0.18433476040085162,
          -0.10576661727309364,
          -0.25858121555149854,
          -0.2253816901498339,
          -0.4918387142787736,
          -0.3041786386690383,
          0.06672180308394393,
          -0.3928868659538791,
          -0.1967088725818524,
          0.16500273371967855,
          0.13906022681593236,
          -0.04651655842976201,
          0.17929303865274235,
          -0.43841585027594604,
          0.10739773326815452,
          -0.5317048959638456,
          -0.012807702746275162,
          0.011923938306775243,
          0.15149772821941326,
          0.16055049221094,
          0.028581241828113963,
          -0.24827714396108755,
          0.003015713857842661,
          -0.7264588925519861,
          -0.06167092071983088,
          -0.02885058294517669,
          0.0835581546192351,
          0.23816553598296172,
          0.1389692930662342,
          -0.11397542817914204,
          -0.35436996644440993,
          -0.05206385051870806,
          -0.277604085436419,
          0.04616870418178029,
          0.02080871524094282,
          -0.10785656676007532,
          -0.17515289640768064,
          -0.22339244165114586,
          -0.5644531878696848,
          -0.09355161707698172,
          0.048894572185944424,
          0.08339573745257474,
          0.16026457545711556,
          0.1440892838948972,
          -0.010144287618938723,
          0.3357981604151133,
          0.21496376424004277,
          0.16745317383103653,
          -0.16750051549452594,
          -0.3086884959510053,
          -0.30425773420851554,
          0.14235468233042528,
          0.19928219061704117,
          -0.1731447748652751,
          -0.4268506760807456,
          0.39894542716642195,
          0.12743358265207355,
          0.18463954068944843,
          0.13111279293878475,
          -0.10118876219226638,
          0.09925240327830247,
          0.060820168189719845,
          0.10920504032526092,
          -0.11813165755646657,
          0.534685163233425,
          -0.06663101127762885,
          -0.3847188560496564,
          -0.0380722595339612,
          -0.3076186636165797,
          0.21609819698567923,
          -0.2580579721955379,
          -0.29691111192345093,
          0.014134890651850444,
          -0.15782308733099118,
          0.1053880053592032,
          -0.2106300782134805,
          0.4425567412163666,
          -0.11125432049700029,
          0.33316274917186045,
          0.022691256869081373,
          0.2086544816079862,
          -0.18748916372020585,
          0.00601631177163042,
          0.39477359417909064,
          0.030961793774333213,
          0.09628326796997175,
          -0.2165924531908776,
          3.569656797822137e-05,
          -0.1520986808592664,
          0.2630326477965986,
          0.10793383294810756,
          -0.3699503262621662,
          -0.37970851538943823,
          -0.48050826685275244,
          0.44253991710177976,
          -0.303620658055179,
          0.2665412772990655,
          0.3123184650122986,
          -0.33355958020244614,
          -0.12737387630074362,
          -0.3911449751682445,
          -0.2013604135562695,
          0.12788101027644902,
          -0.1216595829231812,
          -0.1665721664458315,
          -0.1609820463072617,
          -0.2388642867977403,
          -0.15734926129947427,
          0.11299907011711237,
          0.20108384656221856,
          -0.19977738138242027
        ],
        [
          -0.40725800911642657,
          -0.5657129682317719,
          0.1383372842479022,
          -0.6116125464160769,
          0.23746220583204689,
          0.06813968753519692,
          0.18320786739736686,
          0.18804235693244767,
          0.10191548358879124,
          0.28590920357267857,
          -0.062317793467421057,
          -0.08686329383852359,
          0.1524779165011922,
          0.04120967705609551,
          -0.1400005879843185,
          0.16010581706497712,
          0.2843224049882976,
          -0.3464064701963638,
          -0.09706814989606806,
          0.10870399680745879,
          0.02981669263898372,
          0.3517514873282597,
          0.26895419901021816,
          0.39573380267205543,
          -0.06936070922917162,
          0.3738193393420888,
          0.10533135175032134,
          -0.13174067282629673,
          -0.04065551296601015,
          0.0300929767822455,
          -0.34090194971329774,
          -0.31902514261889736,
          -0.09240031490077476,
          0.0015717187622247563,
          -0.2914673230789883,
          -0.471250008102344,
          -0.17114747647751608,
          -0.09697803110288263,
          -0.3961143553565769,
          0.2906594270958628,
          0.09085173840127435,
          0.3197011424150147,
          -0.525527445223825,
          0.027366878478631194,
          -0.621450897586937,
          -0.2651784385753449,
          -0.16009030389585693,
          -0.10098476283212547,
          0.5099495864146911,
          0.16930425057258203,
          0.1336599786082886,
          -0.0859148677671608,
          -0.12155424839314545,
          -0.08598454638408796,
          0.17232884146382568,
          -0.391756424355784,
          0.18974738022313561,
          -0.4800604090623379,
          0.43928936941308777,
          -0.3043592587797219,
          -0.08336434904920462,
          -0.42944175392235223,
          0.1638518547202069,
          -0.0428861982566709,
          0.46380783759748934,
          0.16926297123384465,
          0.1415468312285914,
          0.04510583175160572,
          0.029193930699013323,
          -0.6729677790066565,
          -0.5370355430744315,
          0.23148326798722438,
          0.4136641450689383,
          0.029346133026605197,
          0.3761159411459564,
          -0.22142964399670964,
          -0.3270670883887321,
          -0.2558962469444273,
          0.2594684714518233,
          0.10607309630041312,
          -0.4804797958039411,
          0.20737243131442462,
          0.040592594010431714,
          -0.2000870439823098,
          0.23501037082903747,
          0.03481179376895734,
          0.4544020209116183,
          -0.20001363267065014,
          -0.4489535296004802,
          0.3041574140622533,
          0.15898225834209526,
          0.1260778004465672,
          0.11343132764098685,
          -0.2644705086602912,
          -0.03385363868657223,
          -0.03489249499335574,
          -0.39102589332867504,
          0.09194255709604673,
          -0.22492632421221484,
          -0.409911563628934,
          0.4288073493297925,
          0.10553694430630206,
          0.3982669269509977,
          -0.2924500389917374,
          0.08324231398700273,
          0.056487190834883974,
          0.5374745770847651,
          -0.0019260207631658036,
          -0.09356974850149895,
          0.003729814406613737,
          -0.2829648015247692,
          -0.23585928186450122,
          -0.2951121589402449,
          0.15573769822950365,
          0.44487056563063837,
          0.052026547693576355,
          0.04198471060453623,
          0.13027637528199265,
          -0.8039180253951123,
          -0.013741568567636071,
          0.17477206963239486,
          -0.2200181994197472,
          -0.18499636564629993,
          0.33088626216742895,
          0.2060156019230911,
          0.05584989276013051,
          0.04819170499775875,
          -0.042504743729626926
        ],
        [
          -0.3773009285074485,
          0.018873289516198676,
          0.010736627220894093,
          -0.008828406999368136,
          -0.014730413768675857,
          0.30000391842964513,
          -0.0680557699365132,
          0.23151735684022484,
          0.2576631518659404,
          -0.14270606126130078,
          0.3132001335763553,
          -0.19594489127172507,
          0.06499085690327897,
          0.14548306390740304,
          0.33402536808380423,
          0.10027237473971685,
          0.06664916363560323,
          -0.15122972786708067,
          -0.023572937765793393,
          0.39223276688472625,
          -0.2227970032522175,
          -0.04749039222852343,
          0.14279004545930477,
          -0.12152096865156274,
          -0.12597496698350857,
          -0.039333220937666794,
          -0.2176402346465407,
          0.008286124433513667,
          0.02690129708816864,
          -0.2244837991129034,
          -0.0654646364000667,
          0.2036063558644407,
          -0.5480755689637741,
          0.031642198024402844,
          -0.09146045893521235,
          -0.053267455861030835,
          0.16058082306848684,
          0.2206497527283009,
          -0.1926795745640131,
          -0.02702323215040316,
          -0.047360506123135165,
          0.0031232021444585444,
          -0.5434685624440397,
          -0.06087155887786437,
          0.07641515445150208,
          0.3007192713344416,
          0.177175750657646,
          0.34241817170458655,
          0.05382579042162481,
          0.01124070962764098,
          -0.013194718811423155,
          -0.3528187747526593,
          -0.28552310003078574,
          0.14036062874642544,
          0.24572310845452475,
          -0.339167794288444,
          -0.07928073658220343,
          -0.003592065022887813,
          0.21137695788770713,
          -0.10911591149909293,
          -0.1333722968617355,
          -0.31223728675827545,
          0.608948735099718,
          -0.2385096428486179,
          -0.009924841457273478,
          0.1595292514997953,
          0.05811987842310028,
          0.42517636540076914,
          -0.39343685576555226,
          -0.5549477140369528,
          0.13415610821147939,
          0.2722912369111673,
          0.011972030805897588,
          -0.2128992041458161,
          -0.292538417430984,
          0.018208757113827544,
          -0.14998097014035344,
          0.017238460988518674,
          0.09579240734334173,
          0.1481075626515992,
          -0.330836175727331,
          -0.14788011885836774,
          -0.15219709829539338,
          0.009842770276164918,
          0.15543186765198344,
          0.0950828449284541,
          0.3352239117680474,
          0.13117241331223195,
          -0.3364727664806775,
          0.0985320534136532,
          -0.2509198056918975,
          0.22902338660651303,
          -0.10938968030717693,
          0.10270258221088967,
          -0.019447452435007364,
          -0.028462723557118305,
          0.12371570182351634,
          -0.4008536942334539,
          -0.40943793095740993,
          -0.04998535814054941,
          0.011521701333041246,
          0.13031162381688674,
          0.15569718798171173,
          0.11198007931584221,
          0.060482142702031935,
          0.4610799938378749,
          0.08127379379192817,
          0.08561515502316046,
          -0.05956085239128302,
          0.08450596677960533,
          0.05103087222069184,
          -0.0530554629520574,
          0.00025324807712168195,
          -0.33595775308316556,
          0.1977317712922594,
          -0.09691553156416478,
          0.2164441638965418,
          -0.3162928391357319,
          -0.15507144262872766,
          0.2311443171057207,
          -0.324528662349585,
          -0.28997688588834253,
          0.017113165326031438,
          0.22129748371668345,
          0.24193465568887432,
          -0.2834657161852546,
          0.12775401496426628,
          -0.031411202180052486
        ],
        [
          0.2133745377018529,
          -0.19902250681182823,
          0.1394338580894219,
          0.13190350309285545,
          0.16860291664099247,
          -0.05957539212538318,
          -0.2078088751862767,
          0.01590870257738519,
          -0.06808472787868415,
          0.09595724430225976,
          0.15811008172393443,
          -0.08457992933131832,
          0.22644404190765371,
          0.21659958390897863,
          0.5163821369699747,
          0.07419480975537707,
          -0.5454610689167719,
          -0.10556478495925,
          -0.1169475198327606,
          -0.10647765083446316,
          -0.8625575797371661,
          -0.03051475116977458,
          -0.09719044540726528,
          0.2028071699924525,
          0.1695101227811286,
          -0.09601986905926972,
          0.04345655625209482,
          0.12733204624772124,
          0.40768018822997454,
          0.026251038265951255,
          0.15700585283146015,
          0.2357703838315191,
          0.10155901286271649,
          -0.28703213770306335,
          0.11968389604153744,
          -0.008500276232678914,
          0.20027107037393407,
          0.33133878335995237,
          -0.20395629573487525,
          0.05006509860954857,
          0.13830164180370805,
          -0.0656046953340795,
          -0.16080000340644285,
          0.16031736741339314,
          -0.4317544427939507,
          0.2659251576628267,
          0.148399310299458,
          0.13906197640213908,
          -0.2594779336816382,
          0.16271669448700973,
          0.1502701902181135,
          0.33967925877804545,
          -0.045353240433373986,
          0.5370135205571213,
          0.03379534801351265,
          0.3082044294588822,
          -0.05785542781844967,
          -0.18720151047667344,
          -0.11947794199237492,
          -0.3983763042226944,
          0.09650430381580595,
          -0.46894957667817055,
          0.1714266136482888,
          -0.13001314320915625,
          0.1329467457260038,
          -0.2814317594276199,
          0.052942002969677604,
          0.3436340752468773,
          -0.0007619647780847707,
          -0.020194565118888078,
          -0.013878838093456232,
          -0.2538456776511082,
          -0.4925691859420164,
          -0.4062086199248141,
          -0.18400629569927496,
          -0.022466953259897077,
          0.0019376329106257882,
          -0.13673839970841042,
          -0.14201815521363997,
          0.012095431443238597,
          0.11128771489017483,
          -0.2343557015058117,
          -0.05196211860661558,
          0.42812249097001565,
          -0.08846144261730708,
          0.08974038633595648,
          0.04655292042764108,
          0.08418563295805889,
          0.049650638905083574,
          -0.13534833441295685,
          -0.3172196013984917,
          0.09616478778877521,
          -0.6123652776817375,
          -0.10206147220577498,
          -0.37402257697073144,
          0.07787893563616484,
          -0.14303141101702804,
          0.3070564119599342,
          -0.09022743950335749,
          -0.22811090597817169,
          -0.05145233346773643,
          -0.15618718817240182,
          -0.11027575829794979,
          -0.20547476577984036,
          -0.3863963451434107,
          -0.36399623272734255,
          -0.5255813207529559,
          0.31759076595883945,
          -0.20542268279779322,
          0.08744711010237419,
          0.2099488566821643,
          0.1386561085613564,
          0.21754808726300434,
          -0.22109320700802787,
          0.2443876070513566,
          -0.03321719300085191,
          0.1662526679093353,
          -0.2262343610177305,
          0.22101515537930513,
          -0.42233356047997855,
          -0.14687592042132835,
          -0.5991964389292478,
          0.2711597625515253,
          -0.07207558182593302,
          0.40301924270479494,
          -0.32748025860515745,
          0.09985545493819432,
          -0.31356425151543493
        ],
        [
          -0.18622378446353374,
          0.26489999019377525,
          -0.29294933774169485,
          -0.21508336142828988,
          -0.19074746720965108,
          0.3339083678013099,
          0.14255144551753707,
          0.29811589854786935,
          0.10411523040271976,
          -0.07788287292606666,
          -0.02052688657144235,
          -0.08233621549576875,
          -0.3795677290649085,
          0.2402358925590158,
          0.16836041106408095,
          -0.44018323972904244,
          -0.1899294854951863,
          0.02503877012839977,
          -0.04622380564751518,
          0.1680074267911056,
          -0.16552987756138363,
          -0.4555654957993149,
          0.1491715254011393,
          0.10831495765506804,
          0.2979857484492565,
          -0.12569258073096717,
          0.2813665126737931,
          0.2831462063049808,
          -0.46017608854951975,
          0.0038460581248400878,
          0.006112822628138615,
          -0.03781547141473135,
          0.12682257117023782,
          -0.2618372989892072,
          0.34962511841982946,
          0.0325859803435193,
          0.1117882867778538,
          0.046142376838520814,
          -0.005493231766453217,
          0.14795988784377792,
          -0.27054275217423956,
          0.1889625992321695,
          0.3305604481358726,
          -0.16760742230046433,
          -0.19286656151988366,
          0.05232329676120591,
          -0.0008254485222426488,
          -0.23295505552010476,
          -0.5134767124342763,
          0.20098222015191708,
          -0.046470229708087736,
          0.2987332351195673,
          0.18845177505458724,
          0.11663182649073535,
          0.35521526906741113,
          0.0877241779362858,
          0.29561862378885784,
          -0.013494612909947759,
          -0.026884619666096086,
          0.31967407784867646,
          0.2524864349367939,
          -0.6732956051687325,
          -0.012836298452304195,
          -0.19589708434304767,
          0.0022963447684291663,
          -0.27540647487061315,
          -0.18190372981077124,
          0.34175599770142673,
          0.06529357392130646,
          -0.18028793903798174,
          0.03525058997731494,
          -0.6572892540637509,
          -0.1420240090539664,
          -0.12410767044625118,
          -0.4333796548927346,
          0.13685162323719283,
          0.0860197843006509,
          0.12660975275557923,
          0.09159578136638738,
          0.027133042738012262,
          0.2982003344167717,
          -0.290449244634286,
          0.13362070145426808,
          -0.008610704113484429,
          -0.24274118215044257,
          0.08986579233955559,
          -0.03976555183764644,
          0.5010911168656773,
          0.18968278579471742,
          -0.0713642236031421,
          -0.427283419813146,
          -0.10999521097264071,
          -0.11901302813094553,
          -0.3036664595625557,
          -0.30980733939447547,
          0.3449127766057241,
          0.2936454495884531,
          -0.18964017365374777,
          -0.4345273924490423,
          -0.10817050932073506,
          -0.43062767977096533,
          -0.2554880607435261,
          -0.2692491034128966,
          0.1884174189448879,
          -0.3672660820053523,
          -0.64966851637421,
          -0.6670592239980354,
          -0.058317923015083345,
          -0.20397771322048733,
          -0.38764483004721945,
          0.11299217773973551,
          -0.08687992050206689,
          -0.1711531909046599,
          -0.1441048167669865,
          0.3579924789633188,
          -0.1615072448187546,
          -0.008339209966295811,
          0.06635530865787699,
          0.4788331003678477,
          0.20038011525646815,
          -0.28803839418318616,
          0.3015673032939252,
          0.13592276663285027,
          -0.2921206779655579,
          -0.128084520071917,
          -0.09269471495374801,
          -0.00214708111851075,
          0.027370609885534893
        ],
        [
          -0.25561770522410937,
          0.2891384822864254,
          -0.04828520467082825,
          0.05323085203125082,
          -0.054283703916400076,
          -0.020289324997006735,
          -0.18250919240161237,
          -0.05087787753848883,
          -0.0019699249555734225,
          -0.13172228152864449,
          -0.19882716446188642,
          0.08798549040116063,
          0.10492256912484219,
          -0.22916059637817252,
          0.34575091469536734,
          -0.0819848996956089,
          -0.21960299777086384,
          0.36375478927350585,
          -0.05571891923335768,
          0.11060746078750115,
          0.12293237723108344,
          -0.3665138056780162,
          -0.6566280177079729,
          0.024922000715187093,
          -0.11151439464620698,
          0.0679097940036147,
          0.21940112006642998,
          -0.1584373946465997,
          0.22879298962164996,
          0.4356008448976938,
          0.005479096912178015,
          0.06176078483832353,
          0.3833942862480301,
          -0.19573163363655888,
          0.3113169787364936,
          -0.048293835559961876,
          0.14917042258284835,
          0.3548642777052518,
          -0.2741280999344458,
          -0.0582954808458905,
          0.24946180425528455,
          0.22292204172791816,
          0.3128433454913257,
          0.1521469808106901,
          -0.15151359856013608,
          -0.13239265385633345,
          -0.1730468268437179,
          0.10104938634948007,
          -0.11789101087055949,
          0.10380902704590417,
          -0.16417699269242494,
          0.064796879202935,
          0.22518979721972654,
          -0.05572762599059611,
          -0.02825539384907311,
          -0.41748048940025756,
          -0.12296057714939056,
          -0.17750775086599918,
          -0.276372382695041,
          -0.007200477536365485,
          0.046011018211935296,
          -0.04924528053008323,
          0.10171065832148199,
          0.36292769273232406,
          -0.07151984897258466,
          -0.36174523683215376,
          0.3155604197878753,
          0.007527477995815472,
          -0.2238605948564959,
          0.12962241097216295,
          -0.06798433601993666,
          -0.2752750086060554,
          -0.04739386289617489,
          -0.0488108384579716,
          -0.3508650697927816,
          0.039360000378132864,
          -0.1280408126923724,
          -0.08376731421383421,
          0.016207235494793377,
          0.3669793193163553,
          -0.15963196930338752,
          0.34698347529221224,
          -0.18030371366855935,
          0.1986248491484037,
          -0.000808610887762472,
          -0.11730741877994516,
          -0.3193801374307881,
          0.08957368596030395,
          -0.022343791347706775,
          -0.07187199391141662,
          0.08958387162675072,
          0.1490256618736517,
          0.01951354501558097,
          -0.1625144881081216,
          -0.1831263498407761,
          0.03901358359762108,
          0.22762688952129978,
          -0.19601717085146736,
          -0.1858189718472556,
          -0.5184935109388306,
          0.018223054315664077,
          -0.0570050174754245,
          -0.3217429998343585,
          0.1342904182902678,
          0.015781781496367532,
          0.07118500543116872,
          -0.09350943635048806,
          0.17395853262207192,
          -0.3683926309103416,
          -0.14335469947533083,
          0.3114740664827461,
          -0.23563741034587418,
          0.20883068752066647,
          -0.0036006657740776677,
          -0.17881439720487216,
          0.03589255884823682,
          -0.31511636713922186,
          0.14190577215362138,
          0.10474776724532396,
          -0.044133201171964204,
          -0.3204480431578391,
          0.28019182975017926,
          0.024593177041833454,
          -0.327138855217885,
          0.11266397688202841,
          -0.08418981584089145,
          -0.3373203493439587,
          0.2310034993112495
        ],
        [
          0.043160417035908845,
          -0.03630570513548695,
          0.4826991069998188,
          -0.07217624993338038,
          -0.03449764045905654,
          -0.11560588056156149,
          0.3465853066647915,
          -0.14873615099259033,
          -0.12742276761938676,
          0.2290955501950157,
          -0.061320947459543244,
          0.03110099007126689,
          -0.06005928319064719,
          -0.11231305499450693,
          -0.10434925724648222,
          0.022770530541536462,
          0.17226971212605693,
          -0.04603122527339164,
          0.0650250589921072,
          -0.43887147391689313,
          -0.49880805314531473,
          -0.08511285920330944,
          0.41881686467161583,
          0.24277671950951088,
          0.18198637453166452,
          -0.24118562034153163,
          0.05379813756721357,
          -0.027370538145604337,
          0.09043549531795232,
          0.24506821826083505,
          -0.04136061735049577,
          0.2626047073411248,
          0.10650133751331717,
          0.020303904678355023,
          -0.1550575281876973,
          -0.1621029092676424,
          0.06270208751326792,
          0.200928986793419,
          -0.0021209561576414683,
          0.30290350055043697,
          -0.26437309738458176,
          -0.20398978523197356,
          -0.18409416027930198,
          -0.10781045396454654,
          -0.26602623474990994,
          -0.07276993457971695,
          -0.12405312527935866,
          0.10751307291149563,
          -0.20974073751162886,
          -0.12728769561497677,
          0.11659682016593616,
          0.28761674197120507,
          0.18509269101732778,
          0.0057598924819698815,
          0.1989781788119987,
          0.03737896729243637,
          0.2261341013726102,
          0.042735066049549984,
          -0.11941693079929777,
          -0.07507142942132082,
          -0.38937869444000156,
          0.09830125786617232,
          -0.06061407570160699,
          0.17912179673828366,
          -0.3964946314752824,
          -0.2066242640365318,
          0.22534304762097507,
          -0.40835302533758805,
          -0.09294802323875166,
          0.0949663276443054,
          -0.47602283008773316,
          0.1749950415016978,
          -0.03696991219255732,
          0.17633870097079254,
          0.0376876031060777,
          -0.27024451246271325,
          -0.5508674912393307,
          -0.5022656614019994,
          -0.011740447489873393,
          -0.2797870400901541,
          -0.2611726187699163,
          0.06605244389301677,
          -0.11059415542785146,
          -0.12688668048992352,
          -0.09132247493371204,
          0.5387703252660475,
          -0.1456661985925162,
          0.09268914540234113,
          0.08234153666867741,
          -0.1645694634181793,
          -0.006482340307767338,
          0.3522907223716089,
          0.2405827715668344,
          -0.21938217116484104,
          0.21820686014948323,
          -0.3383538988945673,
          -0.09671181788929792,
          -0.07724568683732136,
          -0.109965702832623,
          0.06228027431472175,
          -0.08221309300587665,
          0.02771137915723665,
          -0.1673961622871691,
          0.16100834451597448,
          -0.21640494464079527,
          0.17910546783750997,
          0.02367292676176402,
          0.18961329635542232,
          0.23161729753934115,
          -0.2121187849092901,
          0.007991875287866193,
          0.06097857645360467,
          -0.036918868543069756,
          0.27769613619679434,
          -0.0926225769275492,
          -0.2880521169938215,
          -0.005518817415889735,
          0.04086818384098418,
          -0.33354307900670155,
          -0.01964542581087267,
          -0.013704809677726039,
          0.07503753733954364,
          0.01140777118837142,
          0.22089746821912795,
          0.40762518555783184,
          0.04454807045820993,
          -0.2553657754105347,
          0.18904535254708502
        ],
        [
          0.05583319512104395,
          0.1633846549206757,
          -0.03663245681456179,
          0.25854617694530374,
          0.4467029157421166,
          -0.47852057528034536,
          0.43175638809317196,
          0.08086500040173308,
          -0.1423593045687618,
          0.12253954674063731,
          -0.25501467563729846,
          0.38920604943825665,
          0.12852906328124303,
          0.05356446534557827,
          0.232362934634168,
          -0.26654549568042196,
          -0.4001236118617302,
          -0.4683672217397799,
          -0.11770732850555864,
          -0.32939521160212143,
          -0.1309450700749308,
          0.22639812839498116,
          -0.09323167806070548,
          0.2816972789934632,
          0.2523256071231731,
          -0.09349230958564712,
          0.044118625819005254,
          0.14653169680669317,
          0.00027940408364726557,
          0.06434204447342656,
          -0.2772707640640567,
          0.26209295869377813,
          -0.015298413607638015,
          0.17158533704551743,
          -0.296902114380308,
          -0.08913861744810032,
          0.17715374105823326,
          0.2579952933049693,
          -0.437687059203441,
          0.09231266717784047,
          -0.06264498539643246,
          -0.1388120626536662,
          0.3981441269993915,
          0.05334897917169222,
          0.07104805737341967,
          -0.017528278696620957,
          -0.5233482672965487,
          -0.2099316633400465,
          -0.27791658325289903,
          -0.3126725200754955,
          0.04085470715819713,
          0.39454449863949276,
          0.081156490965391,
          0.15856216735208079,
          -0.5376735687242249,
          -1.1358619127765759,
          0.2607977609420627,
          0.09548825956026605,
          0.19982143495617702,
          0.41805138682601206,
          0.17362138644479955,
          0.1992396609925749,
          0.21290720370969252,
          0.10344180371022467,
          -0.32640315727589064,
          -0.1669165247522466,
          -0.20707250708457917,
          -0.2095982787372361,
          0.24451311193476175,
          0.06385364692011533,
          -0.46087125734874024,
          -0.14957524158614202,
          -0.06759998278643857,
          0.3292694518980363,
          -0.5918315045076245,
          0.04914942588086,
          -0.10897173121851825,
          0.06716711415145873,
          -0.3741160500202078,
          0.23351230802629147,
          -0.28995126919746983,
          0.3097769022620012,
          0.3109589790217434,
          -0.677935934473094,
          -0.41939439604050227,
          -0.2423061039681535,
          -0.097796993568246,
          0.08067070591441845,
          -0.29068887131511323,
          -0.12100179348522867,
          -0.5511782348451436,
          0.0530913198533929,
          -0.1599773881493225,
          0.4412228926625845,
          0.3681624425745633,
          -0.1005210593525289,
          0.20120554258309672,
          0.294258194491076,
          0.033693787594776745,
          0.07045663972067752,
          0.4508175837519794,
          -0.008285181555705158,
          -0.012139279531670035,
          -0.1070940150813226,
          -0.3969032261479433,
          -0.7288297159018662,
          0.047602362943180314,
          0.17555551908523395,
          -0.40124239760440256,
          -0.20746805762193535,
          -0.1979588098384859,
          0.3170482650651971,
          -0.40229020076494093,
          0.04967585041136415,
          0.11060257468662332,
          -0.28150001809139025,
          0.1329193737816965,
          0.19724637716590132,
          -0.5347301182717906,
          -0.6164833287449614,
          -0.6086526606804578,
          0.32687076878080124,
          0.15379509632311691,
          -0.04379830257267234,
          -0.39966384711231534,
          -0.04273780942356898,
          -0.08339486161926274,
          0.1637852905035593
        ],
        [
          0.25759576481079094,
          -0.17963649438872736,
          0.2737237502445204,
          -0.38418496410352293,
          -0.03616818663170382,
          -0.01430482431135597,
          0.08648797780901203,
          0.22053122515923435,
          0.044446897407506174,
          0.38260970773926617,
          -0.5266351704631396,
          -0.08244010528421124,
          -0.11370599516540245,
          0.30693725334702754,
          0.002603650521212941,
          0.0034017352709514777,
          0.4353172381566935,
          -0.18751676436508752,
          -0.18826971947376364,
          -0.0660201173058045,
          -0.22392948177069327,
          0.2969420742570255,
          0.5588081781089709,
          0.10376381000768027,
          -0.039965006886799055,
          -0.0013596547917491932,
          -0.027994188212300108,
          0.5056624498952929,
          0.1506389469630529,
          -0.25976349415478606,
          -0.22031895040107077,
          0.14912210239620424,
          -0.30221875603658005,
          -0.12399727697274818,
          -0.3032403035493534,
          -0.1344062970367513,
          0.30498074877777326,
          -0.06248122574200432,
          -0.2181958963284156,
          -0.25140150661743504,
          -0.029937471360651866,
          0.11232861915601501,
          -0.02404380195598885,
          0.047035429329872314,
          -0.9439526208429244,
          -0.050378891328531655,
          0.4409623510983954,
          -0.5357033201418762,
          0.141920373614585,
          -0.2289164584528247,
          -0.020344976785067855,
          -0.20819700075996947,
          -0.2704419141164553,
          -0.41113290497935245,
          -0.1958830123794546,
          -0.5330065368626028,
          -0.273003027196548,
          -0.03411427657440941,
          0.08596163182878551,
          -0.42897907247408856,
          -0.3597186918427061,
          -0.0021051743854538104,
          -0.0019295746141177457,
          -0.20993774736901544,
          0.31812961283431596,
          0.23276913387908724,
          0.1379923121335473,
          0.0282894155808926,
          -0.10380360391585985,
          -0.6269838498297119,
          -0.4853208601904416,
          0.02150279483122388,
          0.01701225818986025,
          -0.166208591354945,
          -0.19369865760558405,
          -0.3227521194679677,
          -0.5691803293062739,
          -0.4634922552202659,
          -0.53619657773062,
          -0.2402092136716432,
          -0.21247366986243285,
          -0.1033387128607716,
          -0.08164363663358974,
          -0.22929195424929533,
          0.12876908893500932,
          -0.1769298504329606,
          0.19797392565323993,
          0.2108253294325701,
          -0.5569821959106579,
          0.08202673742294411,
          -0.023852468814311807,
          0.09679701385126636,
          0.10656491552192593,
          -0.307908155288883,
          0.08812685375753687,
          0.7287963291557662,
          -0.4508679382515112,
          -0.24591975849457062,
          0.36186357959033255,
          0.15603711610326784,
          0.16654984895461325,
          -0.22644109687953431,
          0.10128373381876547,
          -0.041380254592643065,
          0.18041665550240876,
          0.14896352262548035,
          0.2535837961621293,
          -0.2854732700581457,
          -0.21356252861395267,
          -0.3388907895023181,
          -0.33147644947461047,
          -0.24669029101627254,
          0.18477879388427126,
          0.1557489789805502,
          0.4537045174594214,
          -0.29340581188771536,
          0.46202992706267976,
          0.2857869775434211,
          -0.7004221209293576,
          0.08281368299061213,
          0.27636052687761337,
          0.2766260896271043,
          0.10765460795387394,
          0.3271763233729776,
          -0.2644409396390262,
          -0.15537317240966272,
          -0.2270870117586522,
          0.026273389234909218
        ],
        [
          0.09751205513464305,
          -0.30231899652324784,
          0.09885579736715365,
          -0.33596670123781475,
          0.273729219742648,
          -0.061118171379577986,
          0.33773022421065596,
          0.36996837585395004,
          -0.18221064651082092,
          -0.07055532671052768,
          -0.21603014458659836,
          0.13346416082186252,
          -0.0035496549984870584,
          0.33713783264067043,
          -0.2956706324054514,
          0.386586499264609,
          0.23090601548103754,
          -0.10286678832250222,
          0.13574492916906244,
          -0.0790919910808592,
          0.156364405652148,
          -0.1550895199171638,
          -0.14220531724969038,
          0.4766266983185287,
          0.19677039281718997,
          -0.10016212734802254,
          -0.20463083621359085,
          -0.07360120790204888,
          0.0033337939550075603,
          -0.24171351150090378,
          -0.38039910522201104,
          -0.12322032145092084,
          -0.31608292235834345,
          -0.3714104808883284,
          0.4993585462337253,
          -0.07113686798426067,
          -0.006673512118514851,
          0.16768355727743364,
          -0.35113928865075095,
          -0.46487211415490814,
          -0.050570945678064194,
          0.162621662962916,
          -0.5927570072936345,
          0.21458599042704263,
          -0.26301597575432845,
          -0.08663179728435841,
          0.49264749532507357,
          -0.19830023528065982,
          0.2511850765715155,
          -0.08645028931214464,
          -0.23068071207484958,
          0.28669787605755936,
          -0.471494104492263,
          -0.4521793802581715,
          0.29052324286248904,
          -0.33986660059694046,
          0.2868747518400421,
          0.06762703560746162,
          0.010639480950312578,
          -0.8065928402356615,
          0.04295843313012286,
          -0.13298616537042743,
          -0.07015647808710533,
          -0.3894012471185934,
          0.12125912574361306,
          0.10952557950764027,
          0.04282981087213461,
          0.3119042990699302,
          -0.42244067091327425,
          -0.23974249928341532,
          -0.10006502333623607,
          -0.1730388576666184,
          -0.017818354759388557,
          -0.4996312944397247,
          0.08511589157328658,
          -0.28995499783518214,
          0.04986103595523911,
          0.08038669302825391,
          -0.46263883204899126,
          0.15627968812625181,
          -0.1899206632293781,
          -0.7795122380232145,
          0.028724867859163065,
          -0.39023266308869886,
          -0.07254694703301416,
          -0.271450632893106,
          0.3103189732557564,
          -0.029965426843543853,
          -0.10577428124685032,
          0.3596539521658487,
          -0.3530229423018819,
          -0.38175439186875815,
          -0.44671491864231133,
          0.12523841007128458,
          0.08583757620082273,
          0.3050322226773716,
          0.2913958261170582,
          0.15215637854098282,
          0.23335341552209576,
          0.08300718144757233,
          -0.2404482564664701,
          -0.04856708184548219,
          0.18418739362200895,
          0.07588926066254366,
          -0.05169064295361004,
          0.37246582896276553,
          -0.09901650076998243,
          -0.031386301202922656,
          -0.05818912286695851,
          -0.18972189527716,
          -0.47088224226671993,
          -0.22537603231334485,
          0.18836107821789358,
          -0.2001213977767445,
          0.656071039945965,
          -0.038462047272569,
          0.30464380814623127,
          -0.5242978822700942,
          -0.2026650678878303,
          -0.0014025839780056882,
          -0.2110791556067409,
          -0.3682514515664151,
          -0.14364721050374765,
          0.006489384592553154,
          0.024081181080283898,
          -0.08018819483516663,
          0.047205149133729286,
          -0.047167425319797764
        ],
        [
          -0.031105229802860783,
          0.08001779292669134,
          0.049397108983699645,
          -0.006039368018034743,
          -0.2193854373793839,
          -0.7433872392137595,
          0.22959091815650753,
          0.012678565707415115,
          -0.6416148234076827,
          -0.04899346834450596,
          0.020867512658308846,
          -0.1355743683546611,
          -0.14781771339278896,
          0.08403333906088443,
          -0.10289856180476659,
          -0.006152318624361722,
          -0.17474169061946504,
          0.3168954146888001,
          0.06779343285264408,
          0.1372449456802147,
          -0.1913502753382051,
          -0.7362228828134564,
          0.26039897205591833,
          0.23412246549352042,
          -0.07699073062855705,
          -0.2670997691098949,
          0.01026601371521336,
          0.1336329853540901,
          -0.036411277262920795,
          -0.03451256269447475,
          -0.017733510159598814,
          0.045125340384358045,
          0.21400103473408294,
          -0.17875961029474247,
          0.2623579143318414,
          0.033575146460545414,
          0.07829379246075015,
          0.1974670179798662,
          -0.020107922899403236,
          -0.3823342377268555,
          -0.06967914854567392,
          -0.11060298223560833,
          -0.29261591105651924,
          0.05436206901950649,
          -0.5985065271466861,
          -0.23115604151124328,
          0.05934005352489747,
          0.08575740319746981,
          -0.11321563596075876,
          -0.17165684393418382,
          0.03945141510415522,
          0.19675928137636645,
          -0.13759180378077834,
          0.05009644702592404,
          0.5846747184222861,
          0.26874544597872946,
          0.11339966492062765,
          -0.5298804490164906,
          0.015642579218769843,
          0.03191506074611606,
          0.3555197461739411,
          0.07771812450314719,
          0.03820486025033287,
          -0.5009590192094716,
          0.27167607785230513,
          -0.30278222954423123,
          0.05287507641023746,
          0.38399153937481534,
          0.24465871567075945,
          -0.03751547675058876,
          -0.2220838306007732,
          -0.016867090404757965,
          -0.34250156915338814,
          -0.5168072741477578,
          0.17016341474953703,
          -0.23574675715682217,
          -0.0339991831136826,
          -0.12791205143641304,
          -0.26810973979740993,
          -0.09290256167341285,
          0.32027876361693647,
          -0.6132976218572068,
          0.061703902729275444,
          -0.05750224451000106,
          -0.0006280752728845746,
          0.19904697812727148,
          0.3707212487607415,
          0.08221106920828364,
          -0.07930478206282376,
          -0.07762880709209974,
          -0.28603033734619526,
          -0.7659849083041981,
          0.14914169848959408,
          -0.1574694430301579,
          -0.04818420161481887,
          -0.3998416594211848,
          -0.09912859933249188,
          0.12528154583020948,
          0.29773815372280454,
          -0.1423906623002054,
          -0.21913317125636267,
          -0.4024190885647412,
          0.14899656319878504,
          0.247849124689342,
          -0.16196946905161652,
          -0.31034535876033864,
          0.07582709980741958,
          -0.13306741730168065,
          -0.048620723047339505,
          -0.0061374133297301195,
          -0.15982037060225976,
          -0.2980758192397957,
          0.3235974308354061,
          -0.2843678939938255,
          0.5586548294930088,
          -0.044056038734709625,
          0.20562667938975931,
          -0.21845387860952736,
          0.24278861014037098,
          -0.1694659787900141,
          0.11960369853129837,
          -0.18949716687667872,
          -0.1304809527883463,
          0.23546100618566831,
          -0.15100351790835095,
          -0.14524983983733852,
          -0.04244546365854003,
          0.10902207406543753
        ],
        [
          0.02364886734874219,
          -0.16987294191696894,
          -0.029207310417413968,
          -0.29973508943394317,
          0.11215731913130768,
          -0.05986803566865062,
          0.0838823449538049,
          0.08869860165370648,
          -0.6960806854042014,
          -0.2111249672118577,
          0.24594449791029324,
          0.4720677132021483,
          -0.4239263466173242,
          -0.12340934295168966,
          -0.2926800720302069,
          0.17057622112733864,
          -0.23264567883833004,
          -0.24422962293983672,
          -0.3017793910915971,
          -0.11158979832742108,
          -0.1553272590628422,
          0.2115663910639162,
          0.08062035885691288,
          0.08343598808179101,
          0.22040865865163614,
          -0.19003168876031834,
          -0.37231151530556583,
          -0.07289869699863086,
          0.07526763304039306,
          -0.28997072143992875,
          0.14175407158795503,
          0.19993258115840193,
          0.051116228409795135,
          -0.2161191944816091,
          0.35554434666523865,
          -0.021843837673592433,
          -0.33772384488215534,
          0.13398028808023776,
          -0.04917555181227842,
          -0.42489988448359073,
          -0.23299132358262872,
          -0.09998364956752424,
          0.09078740309785768,
          -0.2827931864516252,
          -0.10200612532960125,
          -0.13079079060977017,
          0.15313445463515302,
          -0.1261540070120719,
          -0.035636534661283456,
          0.14115731153344635,
          -0.13758327085484265,
          0.3599395127993279,
          -0.016902718379986033,
          0.11233711455668936,
          -0.1953256593066235,
          -0.22380475982024156,
          0.3718156544322578,
          0.15478833338356934,
          -0.207345702509832,
          0.07342681068005004,
          0.5232204278599899,
          -0.15351113571712655,
          -0.06628752870969319,
          -0.4068041653691621,
          -0.22721089399389768,
          -0.24553493506743468,
          -0.05504415818328498,
          0.6936005025189526,
          0.12241102364882803,
          -0.1413607271790713,
          -0.2253937306118471,
          0.09663935826727345,
          -0.2509757642891278,
          -0.07997142805637221,
          -0.40101789333972004,
          0.4756220901421251,
          0.23958150240505555,
          -0.14572483232435432,
          -0.13979309606816084,
          -0.18310651199037453,
          -0.02464725789393912,
          -0.6444809275520756,
          0.07566320728306132,
          -0.0010064207039385085,
          -0.0932142223134641,
          -0.03274463806484108,
          0.10172305507788823,
          0.18966748025129024,
          0.07166823760978393,
          0.046985046182503896,
          -0.04117987034069953,
          -0.5969318107631326,
          -0.12205300808160213,
          -0.15845549858286065,
          -0.23885233827833666,
          0.27179545965650576,
          0.26708193913479383,
          -0.1990662944800649,
          0.4055360265518932,
          -0.14446207510164655,
          -0.0013971995373382037,
          -0.6905850567084744,
          0.23262331681611728,
          -0.16637700445247758,
          -0.16380919980615694,
          -0.4656537038365046,
          -0.35094656855499234,
          -0.11374969805210172,
          -0.2944791564387246,
          0.061266709724942615,
          -0.07392739772800011,
          -0.15527065433204607,
          0.09445727731611542,
          -0.14643252886802033,
          0.3815072093247959,
          0.355332731012035,
          -0.0963808289110382,
          -0.05005701585632444,
          0.3238302845585296,
          0.11354340441035275,
          0.29840698207509614,
          -0.2309358524952106,
          -0.06801246861355462,
          0.16676226413029982,
          -0.038613989800538255,
          -0.11170712585271639,
          0.01699881406785517,
          -0.15760699117802598
        ],
        [
          -0.04390210835635397,
          -0.13905042281142105,
          -0.10625832472783432,
          0.18322450070319637,
          -0.012994334668290534,
          -0.4328924575451232,
          -0.15099575811980268,
          -0.08634918807726215,
          0.0893004493761283,
          0.08560463718721008,
          0.07101277122537861,
          -0.2679852782856115,
          -0.24400136237055098,
          0.05635081032105404,
          0.25670096940804915,
          0.0654494935926753,
          -0.10367158830181189,
          0.012797117501388617,
          0.25674743258507415,
          -0.08729681731806799,
          -0.11149685205277407,
          -0.1317143126628181,
          -0.19378122480678464,
          0.1323242170166456,
          0.17834131675406373,
          0.27280861934254913,
          0.26485859982718585,
          -0.11299243812473941,
          0.008247478647082994,
          0.07679538468469739,
          0.07179344910429523,
          0.061193529018807355,
          -0.019112578818036637,
          -0.4488204168032269,
          0.1541226117804019,
          0.02620817128583005,
          -0.056515473306807014,
          -0.5037661856518895,
          0.08640544126744219,
          0.4185612913605626,
          0.04469712154906802,
          -0.21080498334118494,
          0.12292778440264775,
          -0.4210580633423818,
          0.03174657250123143,
          -0.6410813009275945,
          -0.28765228765972,
          -0.3209838962513317,
          0.0013531930331438958,
          -0.08912298028428337,
          -0.3146024358834265,
          0.12787469519958103,
          -0.26526435404619003,
          -0.14096015925543637,
          -0.021283956832197998,
          -0.025980192977098398,
          0.027934461890764126,
          -0.0844658309462331,
          0.3402634519914476,
          -0.04832766419013059,
          -0.21911426106976398,
          -0.0788289933684612,
          -0.23854074684063759,
          0.06296879666762593,
          -0.003586318480553051,
          0.14358593257189164,
          0.264665922798666,
          -0.5329560049847883,
          -0.23702355636982186,
          -0.23222600052433717,
          0.188240088322662,
          -0.28657218818155394,
          0.13374822417900495,
          -0.176464340762289,
          0.01565178544559694,
          -0.10020691492574765,
          0.16468241985490917,
          0.09838513792162483,
          -0.08874336791082407,
          0.34086781570497593,
          -0.0026640541858587567,
          0.17980967742400927,
          -0.17978840323169407,
          -0.05232291165044446,
          0.262493843667559,
          -0.15081518579433237,
          -0.35964733780620234,
          -0.10009000225248721,
          0.2582878524021119,
          -0.6155798031915631,
          0.055071569658471015,
          0.053922185228565886,
          0.2322648281493304,
          -0.40458874648057686,
          -0.41269644524929183,
          0.026096207033587195,
          0.15936135514904604,
          -0.1053276101116334,
          0.21196105468897164,
          0.10062777056509964,
          -0.1483872866892907,
          -0.012822057246583423,
          -0.4023536581036344,
          0.06385349399884346,
          0.14864794789464894,
          -0.01525907477246185,
          -0.18482817821782135,
          0.12444324979053668,
          -0.049484273742458486,
          -0.18464176399625368,
          0.3000011252646661,
          -0.397917046515038,
          0.11566561646629704,
          0.017751855805924956,
          -0.19735884370267812,
          -0.32685557592854086,
          -0.19810771681301909,
          0.14303775824190632,
          0.1310997061527442,
          0.03661747563851169,
          -0.20715038710195982,
          -0.2586899013744607,
          0.0067939615098897375,
          0.0625389390966383,
          0.440516669741143,
          -0.19744451145421957,
          -0.2230002157596146,
          -0.22187072293972898
        ],
        [
          0.045484515663061637,
          -0.3729018242842381,
          0.5678669355357737,
          0.04798137484290703,
          0.14481059722265444,
          0.013333430875442037,
          0.08908842799182817,
          0.2543685807466569,
          -0.11705990232635215,
          -0.03224296285721326,
          0.29463059936027847,
          0.25146488004652645,
          -0.158973938038693,
          0.016194935920294945,
          -0.06102897127067356,
          0.12747461351342695,
          -0.14198637477858997,
          0.08588873066052478,
          0.194100309339143,
          0.15530557892380373,
          -0.13151502947977164,
          -0.18240187449342113,
          0.4324731642890877,
          -0.06236354939507441,
          -0.6836368869993734,
          0.36049290384180066,
          0.16207899277465532,
          -0.15938722644636347,
          -0.3629100278598009,
          0.11559190981067916,
          -0.06581222353405561,
          0.35035290612046643,
          0.2581798724774926,
          0.1268074684804132,
          -0.24529731120761838,
          -0.057676075752920546,
          -0.5433401782149319,
          -0.32503690469803215,
          -0.003752295312473107,
          0.10875094777944382,
          -0.1644725042571111,
          -0.35565462037329226,
          -0.1293851733425233,
          -0.5835507252302368,
          -0.2921741589549476,
          -0.21366866849903046,
          -0.5019703826768938,
          -0.15266477655086,
          -0.11088254110321494,
          -0.2672641528957972,
          -0.21369147790252,
          0.26962801272659487,
          0.20068605269659512,
          0.2574685741002797,
          0.19526176778004212,
          0.1930125903795038,
          0.3915764324431365,
          -0.049133292547286996,
          0.29058315132875406,
          0.055412682404623576,
          -0.3000280592790577,
          0.3989026427784802,
          -0.05951229944803272,
          -0.02148322205603807,
          -0.46930551378033936,
          -0.14805844727281556,
          -0.32555860189951913,
          0.24777236192661847,
          0.012611567538269555,
          -0.6138236925057412,
          -0.0014289501480208564,
          0.03791442951029869,
          0.13876447571151299,
          0.4273749921479312,
          0.26553229310546983,
          -0.21801916661879162,
          -0.4899215114546904,
          -0.10105850717793206,
          0.40151471636243863,
          0.2573473448139054,
          0.005223201341545794,
          0.1257966919164542,
          -0.24067331017297425,
          0.0628975143479114,
          0.06402212070357785,
          -0.1254843383269133,
          -0.11187171881858503,
          0.011560128964669852,
          -0.10249591821831548,
          0.010146993552101746,
          0.36439073034696046,
          0.23321568386034155,
          0.3266978134688819,
          -0.45526177496166037,
          0.10308448718061712,
          0.21552098584585078,
          -0.12452344434780356,
          0.01195206024383531,
          -0.1656504266121063,
          0.39397695993754844,
          0.10923114089121286,
          0.1604681534729941,
          -0.31022144291486997,
          -0.30810067442650796,
          -0.33036061117104876,
          -0.059265524306485434,
          -0.1550446126413927,
          0.23060406067052522,
          0.004890883117618342,
          0.16747287183499424,
          0.3073984406545256,
          -0.1851902385175946,
          0.4055291175885426,
          0.10798433034118758,
          0.03147266356685095,
          0.09497583297427568,
          -0.5808451136179696,
          0.15151510739058902,
          0.03607166500654428,
          0.4041806280525606,
          0.11109274624751021,
          -0.22403176492524726,
          0.5577710182405173,
          0.16319525715511257,
          0.4145679273310734,
          -0.2577520383455685,
          -0.36682983675286773,
          -0.189378572077832
        ],
        [
          -0.1920668216450285,
          -0.04076469527656128,
          0.39615899697589496,
          0.36430974070697264,
          0.4343727633804005,
          -0.054914647540319876,
          0.07403705145175968,
          0.3514438528863499,
          0.043846788509158956,
          0.4351038418753377,
          0.193123588441792,
          -0.07922315674371426,
          0.06789709157656015,
          -0.15355703881382146,
          -0.1948727603079905,
          -0.0023901955083093594,
          -0.2949998916021271,
          0.0801172668701153,
          0.1106139324516691,
          0.03547365096797743,
          -0.3779913193280819,
          0.05616563329003065,
          0.15798502954596874,
          -0.011833333478300479,
          0.020233793050789387,
          0.21267789354528505,
          0.10765800936662526,
          -0.40327367068556813,
          0.24405314940768374,
          0.3293813292333087,
          -0.13114637420877365,
          0.2864891082453419,
          -0.5384094593620674,
          0.6843800181408148,
          -0.4372762027449285,
          0.3194402114758163,
          -0.19726010051029758,
          -0.17207454010894097,
          0.033528731767768064,
          -0.0689843973480132,
          -0.052785757288445034,
          -0.00914884504076089,
          -0.1274473442603005,
          -0.5219435616001126,
          0.05432807997225029,
          -0.21741888229377704,
          -0.36421880479896673,
          -0.1886789504560494,
          -0.01945750342797487,
          0.41214660311165363,
          0.15399489270697808,
          0.13433052712980695,
          0.1192265586690693,
          0.1127391563497342,
          0.1220723000437516,
          -0.3554374494594708,
          0.22991609596697318,
          0.10095255630124042,
          0.1310609794876441,
          0.0391515729059792,
          -0.24366151486314166,
          0.34158534032936344,
          -0.10970703226272176,
          -0.07818631931438122,
          0.06767469699902294,
          -0.46323531332587997,
          -0.21594443009845915,
          -0.19973219022401442,
          0.0819596151647697,
          0.11873771577713095,
          -0.04474354807906801,
          -0.18188297412638302,
          -0.019157948953285417,
          0.24265664807552215,
          -0.01898879651615973,
          -0.04310090462005396,
          -0.02358632373535608,
          -0.05839165735324345,
          0.35217564813026836,
          0.13088265886047254,
          -0.26000112263047115,
          -0.16772189873178003,
          -0.289258564726737,
          -0.06376698616928456,
          0.08909074208120094,
          0.12110953239092123,
          -0.09236873801514292,
          -0.3258926458713047,
          -0.39073823902391785,
          -0.30728254656379583,
          0.34106299842963317,
          0.2265202585685806,
          -0.31244790266761074,
          0.15332201140536375,
          0.22340341415905193,
          -0.16491547432378084,
          0.20752577293237184,
          -0.007444620574487748,
          -0.3147405424763005,
          -0.10702018702442258,
          0.16087376456841018,
          0.10615680269486609,
          -0.28477002786252653,
          0.029992775805900908,
          -0.3905854800860039,
          0.0021889816645865234,
          0.11438295869529734,
          -0.009842463456700954,
          -0.005287720233387015,
          -0.17375402164672396,
          -0.5610306882153877,
          0.1539700438160999,
          -0.2062659462854815,
          -0.06182117213577847,
          -0.2596600553039481,
          -0.13355036751824872,
          -0.45427223452997656,
          0.2554307186094921,
          -0.4180228134685438,
          0.07349158040835224,
          0.07686273266834853,
          -0.43262599630626436,
          0.08070589383344384,
          0.08947301571150107,
          0.18178934129102364,
          -0.16656408535170367,
          -0.12136162477435042,
          0.04478039595114209
        ],
        [
          0.13171385255671905,
          -0.09420888738039325,
          0.050482664146170995,
          -0.1003421320053398,
          0.2913365928947537,
          0.43653519505997307,
          0.17903601319191662,
          -0.277116858103816,
          0.2591540222195768,
          0.5776736213685416,
          0.1807137059373672,
          0.5557214270586446,
          0.1165533469465488,
          -0.23688275277232232,
          0.001975346866686859,
          -0.12371472452748532,
          0.2845783698797733,
          -0.4589159377099892,
          0.10359337177067245,
          0.04441037809233279,
          0.4510523526294416,
          -0.042672611676575156,
          -0.014104854214187185,
          0.29604580965175536,
          -0.4913538119899773,
          0.3777535072364639,
          0.06521730234675921,
          -0.07335850348066517,
          -0.10012428667116309,
          -0.29594687835441447,
          0.3597822577966448,
          -0.04149768521221138,
          0.04692827216819763,
          -0.3540701709315267,
          -0.5914169564591815,
          -0.48064003810240313,
          -0.5161575621116024,
          0.2753210556575175,
          0.2720063426442247,
          0.2048693756358899,
          0.001125931893394586,
          0.08457560276938661,
          0.19889861174758966,
          -0.5940750659891854,
          -0.3418243148838573,
          0.16438739583141887,
          -0.08168673485481183,
          -0.11427429158973802,
          0.08472764059762847,
          -0.2330533528588694,
          0.185360434745248,
          0.13648688564051836,
          -0.5022758635050326,
          -0.2227707525326141,
          -0.06094328393504831,
          -0.008777675323381369,
          0.32688748429630377,
          -0.2346399252884708,
          -0.2263390698021971,
          -0.3959333232521624,
          0.042536830850088365,
          0.34031008002480734,
          0.043545349975347154,
          0.2028257286253574,
          -0.10727477041816312,
          -0.13444927613943547,
          0.07050170136339369,
          0.3385969847889124,
          0.1604665788067459,
          -0.612340311334343,
          -0.17252481232445147,
          -0.0716810511832477,
          -0.31516894184686645,
          0.06262549498248016,
          -0.05298030800239858,
          -0.2782608678689605,
          -0.03616545624535375,
          -0.12713814441873103,
          0.6302922857313208,
          -0.08867713303506565,
          0.5903078825666385,
          0.02981872348605949,
          -0.19153777087933593,
          0.22721066370218626,
          -0.2665053168530688,
