{
  "version": 3,
  "learning_rate": 0.001,
  "initial_learning_rate": 0.008,
  "optimizer": "adam",
  "optimizer_params": {
    "gradient_clip": 1.0,
    "weight_decay": 1e-05
  },
  "dense_layers": [
    {
      "weights": [
        [
          0.125090003708041,
          -0.4432548078291638,
          -0.47676963943507317,
          -0.7009414115003536,
          0.3675299224714853,
          0.0013098375697630504,
          0.5705736038259502,
          -0.08084156542943531,
          -0.2479557370677137,
          -0.4076307992363754,
          0.15163092970176206,
          0.2604806978960438,
          0.16813260931892787,
          -0.2770076268512107,
          -0.27539935475374305,
          -0.009350390698962081,
          0.17072785951801928,
          0.018069308179571215,
          -0.13971190292805266,
          0.2247639770535482,
          -0.09993416399277855,
          -0.38690282239922447,
          -0.4311230181479077,
          -0.03988595957298386,
          0.3209014825481142,
          0.0623833688003769,
          -0.41872153833889686,
          -0.05057299154007623,
          0.21435923902799414,
          -0.34253143426820953,
          0.18797607951589254,
          0.4688895749793196,
          0.13011379360169734,
          0.5014183856639862,
          -0.20577611477905225,
          -0.12938468702009573,
          0.0967402312929786,
          -0.0021151248710076487,
          0.08304552878108933,
          0.25107215800684846,
          -0.08841038044271518,
          -0.44439312241104506,
          -0.4080315654035342,
          0.12278515108809947,
          0.2086261543974854,
          -0.2512991795018981,
          -0.18834068504874737,
          -0.2622249435704682
        ],
        [
          0.15522149087473638,
          0.12446165437136601,
          -0.30011634260033415,
          -0.09527057700384649,
          0.049307041840396526,
          0.2217202891582595,
          0.27655909988998034,
          -0.08781365326358596,
          -0.048836055078225984,
          0.05491490276755107,
          -0.014310226409785319,
          0.11261839064843301,
          0.29385291790758755,
          -0.6762354967715619,
          0.07286076711689798,
          0.2592847865233402,
          0.10419541166569743,
          0.14638125296980412,
          -0.08951824671710518,
          -0.25472437905231526,
          -0.040588632018121656,
          0.03586638802213798,
          -0.2502822870061745,
          0.22375029523258572,
          -0.03233154961545908,
          0.055469349248537365,
          -0.07411678119512966,
          -0.007527937062244023,
          0.14645225751069577,
          -0.034299746486995894,
          -0.17822445650098745,
          -0.1208389459678956,
          0.3314182756639849,
          0.06768617718809093,
          0.2077038029493058,
          0.29216416648833154,
          0.3225893468453001,
          -0.20656178483087106,
          0.3044581225301407,
          0.09803688974611753,
          -0.27331689331066916,
          -0.22943050116723565,
          -0.4923309326943626,
          -0.35365671116013947,
          0.48800798915087534,
          0.07442845542509398,
          0.006840063662767749,
          -0.28147601068937506
        ],
        [
          0.4156860535529237,
          0.0907235766467534,
          0.5746123095778535,
          0.07507538673259986,
          -0.36451522579407514,
          0.025535579299885144,
          0.08758154019677529,
          -0.27981835648987063,
          -0.38576891042884714,
          0.11567699526196845,
          -0.81140626846203,
          0.022355311233478274,
          0.13459728909973004,
          0.05189504843257099,
          0.3647037439383523,
          0.0330907906493086,
          0.06772536073347533,
          0.22386513445799144,
          0.2970916490404384,
          -0.1912000681040505,
          0.0490810413984626,
          0.26947634993692055,
          -0.14993979023418755,
          -0.020936644682223754,
          0.06669749370979867,
          -0.030997265702431442,
          0.20154027038906333,
          0.2940838003160251,
          -0.2006459611326824,
          -0.0628302819394925,
          -0.337433513560591,
          0.11961999748774205,
          0.01962403353547478,
          0.21847854114594017,
          -0.2001807150219238,
          0.2676660300853054,
          0.2176041374960885,
          0.43796877782267346,
          -0.20280600364262627,
          -0.04163507078669497,
          -0.6117108791028808,
          0.3533337105352648,
          -0.18313341995907292,
          -0.2193466796534047,
          0.04550485653288142,
          0.4291342677251382,
          0.06790124647907547,
          -0.04026863026609488
        ],
        [
          0.2623730973133279,
          0.08046033494879241,
          -0.2288749264360171,
          0.10407868388005492,
          -0.5397491143589641,
          -0.04708142034119323,
          0.21949603351267113,
          -0.022101890819589066,
          0.13836427428172496,
          0.06255792812479559,
          -0.6259041313419448,
          -0.6604878324244754,
          -0.007838270005287251,
          0.05494937230660234,
          0.03388220922525766,
          0.18372743957034846,
          -0.04735755083641656,
          0.15519847121537708,
          -0.6938830914183817,
          -0.5099181160580317,
          0.48251047590222407,
          -0.2341057105218372,
          -0.3443042913893932,
          0.17479650409822667,
          -0.10486736097497452,
          -0.13045444401820616,
          0.4160245635425482,
          0.2597692908390661,
          -0.06323562277190786,
          0.13228771128600855,
          -0.14427990550525982,
          -0.10917841947113101,
          -0.10451318018479214,
          0.1517180863804148,
          0.11046055738403282,
          0.5123662468997948,
          0.3376559709682847,
          0.5169131869129612,
          0.15062319380866343,
          -0.41041032140012695,
          -0.02718596999790894,
          0.4864514305188659,
          0.24407694951519163,
          -0.32619246496004417,
          0.011186428967171045,
          0.4470853058008385,
          0.06581034555996856,
          -0.2744266776275534
        ],
        [
          -0.09617138866032332,
          0.2109630508620973,
          -0.32680745509028913,
          0.41531544534442194,
          -0.2309812926982578,
          -0.18103005978973263,
          0.2999091232091808,
          -0.12539566010069247,
          0.14885498241503028,
          0.2846683643458192,
          0.6250310706112758,
          -0.28146814523684366,
          -0.02413214881988626,
          -0.09300594937371509,
          -0.07387384458227618,
          -0.2758108116395727,
          0.20908729532390305,
          0.1478461639409397,
          -0.799363205846466,
          -0.05589150864945746,
          0.052746318448726785,
          -0.02742678825528719,
          -0.04399266630957771,
          0.5132363845791013,
          0.23370717259412346,
          0.19091807104937591,
          -0.05836033868013388,
          -0.018920041347982003,
          0.08055891117371622,
          0.088318239303633,
          -0.15958513520773723,
          0.0013746108829528548,
          -0.6604862756111537,
          0.08714743122608883,
          -0.3265826614307258,
          0.334946146656937,
          -0.33048656255302566,
          0.58397759030497,
          -0.36631203479760754,
          0.1256014888466578,
          -0.05902067623396178,
          0.28158376472289476,
          0.1578405007806116,
          -0.2473143699698899,
          0.15123536626415568,
          0.11018005277053132,
          0.3230902293111588,
          0.10566000593721353
        ],
        [
          -0.5038942923177542,
          0.16898369855626966,
          -0.3119889070311127,
          0.39351149248846956,
          0.11423640207121756,
          0.1681615388780457,
          -0.12041861173696242,
          -0.2839165743448173,
          0.2740804727596815,
          0.11616432633398492,
          0.36465434208246555,
          0.00840998838831479,
          -0.039733199296215396,
          -0.017221806689669106,
          -0.012104576306828282,
          0.19209020827425843,
          -0.49811687872550636,
          0.016912491198210738,
          0.020194996532881124,
          0.2537852960032221,
          0.19711277766149524,
          0.05502688937057809,
          0.27591462649091447,
          -0.3803622905296342,
          0.20140552166395095,
          -0.2707656806328802,
          -0.1329222418696761,
          0.14145526193234306,
          0.009614222475543863,
          -0.08430729844488133,
          0.15303844552843793,
          -0.38970632971106106,
          -0.08536686404494245,
          0.14548794069610407,
          0.021603610976433183,
          0.11805866107398709,
          -0.05905914156105764,
          0.054135639104590606,
          -0.2778596375151778,
          -0.09646881941022228,
          0.08255471622802428,
          -0.23052456104441715,
          0.09392857308628354,
          0.02022820084317996,
          0.18495288297770673,
          -0.0058887396520255954,
          0.44066594498137,
          -0.1010596775472716
        ],
        [
          -0.0743356167961481,
          0.30474168520934075,
          -0.29010694216516114,
          0.4166433882194589,
          -0.28813853889948793,
          -0.2908251164225692,
          0.20827912122656445,
          -0.3127520643467284,
          0.22509371979537093,
          -0.04724523917091618,
          -0.648953922120228,
          0.6802255078368666,
          -0.10849037552075742,
          -0.07534783493982054,
          -0.2021050957674181,
          -0.11306402738962645,
          -0.4679709977154048,
          -0.1807138721345377,
          0.5368732365373275,
          0.6264817473725139,
          0.031068801319880327,
          -0.09996699517811099,
          0.6359259606798393,
          -0.14001206152195292,
          0.2803115195264429,
          0.23762672787893088,
          -0.2627034032286186,
          -0.08173563356439535,
          -0.10889481312423596,
          -0.2394383366698696,
          0.4544014371097308,
          0.1456886065916774,
          -0.5001768517589286,
          0.10327026572310284,
          -0.37948622852672353,
          0.5198596760668417,
          -0.7425514872681372,
          0.1585781928561782,
          -0.44536226328958617,
          0.2680166679412972,
          0.3694297470562492,
          -0.2398750009046817,
          0.31498625789515444,
          0.14245439763061213,
          0.23364035035011121,
          -0.8264100149798228,
          0.481756212523291,
          0.09057560505681235
        ],
        [
          -0.28551324987662613,
          0.43425869643826365,
          -0.2803586504366192,
          -0.30611892068788105,
          0.4236538870923284,
          -0.7405108275545259,
          0.17441969613680341,
          0.1082191563157107,
          -0.10277836596835668,
          -0.06783639695714562,
          0.3507876974262538,
          0.07391827881430514,
          0.11213805393527249,
          -0.5708239964979027,
          0.02494624485497808,
          -0.08632106733128163,
          0.31273715528449963,
          0.046209625700014405,
          0.18190538461652464,
          -0.3337341674648987,
          0.1493067794402513,
          -0.2361025088060415,
          -0.3319726650223058,
          0.18271595140446603,
          0.2150705777452513,
          -0.18148895019404906,
          0.24183049217444724,
          -0.17798474090551938,
          -0.17203045624544824,
          -0.4128053562423089,
          -0.038761488310826826,
          0.1413380690925193,
          -0.17746130254801956,
          0.29802273930589684,
          -0.19931295377388203,
          0.11144487055052321,
          -0.12477870920264376,
          0.12306382692966819,
          -0.027176017745042184,
          -0.22014747827110032,
          -0.33951552041581284,
          -0.1790653782139231,
          -0.1514216636113138,
          0.07447755018275147,
          0.4910215043392736,
          -0.10155645649680704,
          0.03949731744860537,
          -0.09723753849450854
        ],
        [
          -0.3049577804453595,
          0.09907798258482453,
          -0.4764136135718259,
          -0.014704339431780135,
          0.2869581220449611,
          0.21651711503090929,
          0.3941886436330111,
          0.19928647260768423,
          -0.07396297526622231,
          0.017016454024837268,
          0.07220392502622713,
          0.0670090587071407,
          0.22413692071265442,
          -0.2841514819363886,
          0.06539954018204713,
          0.14955491806817875,
          0.10389084233243445,
          -0.08633270573581216,
          0.36054680177785264,
          0.3155680393261822,
          0.23327841274467112,
          0.18719817400220462,
          -0.09611882973547571,
          -0.23750092810467244,
          0.4265763177652465,
          -0.21025840756427777,
          -0.1979077965749817,
          0.011242706386745955,
          0.045943362585483725,
          -0.3438451961637986,
          -0.17132152945294968,
          -0.3314329065274544,
          -0.08264835581342486,
          -0.11205436777125853,
          0.04930357463373097,
          -0.08620060079279775,
          0.2343843153468971,
          -0.08770946195066184,
          -0.20662585153204835,
          -0.012639171584171166,
          0.05301238185922724,
          -0.506749430447109,
          0.23754391332477529,
          -0.4429611172270312,
          0.5363574128832769,
          0.1579278440950662,
          -0.006912014429291587,
          -0.005048581528569147
        ],
        [
          -0.5028983805808913,
          0.4478347628236507,
          0.12706089661739992,
          -0.33165068509561085,
          -0.4508845266388447,
          0.15532849169611515,
          -0.042619690460244865,
          0.3424062311368211,
          0.2525120644539924,
          -0.05746009211844912,
          -0.6054888511134411,
          0.15796293248971538,
          0.1980692188286268,
          0.1360841230468763,
          0.3545995398111746,
          0.13924799111107833,
          0.1728197928874421,
          0.23167588422668087,
          0.3074248904187687,
          -0.06113850395948054,
          0.358765061013649,
          -0.32245600200952296,
          4.1580223089999156e-05,
          -0.15269163725808374,
          -0.03177756159772438,
          -0.15405898723723305,
          0.04669043718521454,
          0.038109149882991245,
          0.06518148939893889,
          0.09046366321746681,
          0.013943926889627978,
          -0.2957069951329708,
          -0.018366927708108213,
          0.1157460917846478,
          -0.003822896184604914,
          0.33212176332636245,
          0.3440910097481946,
          -0.24979475317624442,
          0.15444872537348306,
          -0.007130386189615055,
          0.16437802304602234,
          0.014359400824769782,
          0.27602305285551637,
          -0.08228460094675957,
          -0.14449585573427,
          0.27607552961234383,
          -0.028682563881944536,
          0.04190336372187768
        ],
        [
          -0.1881385739464004,
          -0.04524806460003253,
          -0.41849748500463535,
          0.2925982343821809,
          -0.3694918467764106,
          -0.10407447791666223,
          -0.0012425590256511672,
          0.5446090414532443,
          0.04862305468743511,
          0.0013530081120347237,
          -0.6377222575206472,
          -0.8672220062148844,
          0.09235786614681976,
          0.014713107320183678,
          0.33664524632275217,
          0.5457260854461264,
          -0.13244906402245518,
          -0.022064062545780274,
          -0.2182266338965932,
          -0.5553965667672621,
          0.4412337821545487,
          -0.9291664257056961,
          -0.13497021688574057,
          0.13271930500624923,
          -0.746242244612157,
          -0.018442765988569202,
          -0.07717752983365486,
          0.20323474987016021,
          -0.0011472852011828443,
          0.42125909262988986,
          0.19246198534028708,
          0.08647348726514859,
          0.051681161514658375,
          -0.13893405236070222,
          0.3472912252687296,
          0.47767894802279537,
          0.32639418017642047,
          0.19889496821115285,
          -0.07438316792794929,
          -0.15346155497286088,
          0.21356310159034733,
          0.4906019667035254,
          0.3666177451928092,
          -0.19920826113210194,
          -0.09378167315989597,
          0.37239739972017366,
          0.13887127890593198,
          0.010219931970782152
        ],
        [
          -0.2121384920660593,
          -0.03686118776780613,
          -0.41173636436608324,
          0.07262737806658073,
          -0.10317052937912849,
          -0.228422906925779,
          0.306065549791407,
          0.3489479848031792,
          -0.274187602747073,
          0.03323657395235964,
          0.2858269610591358,
          -0.2902873763035903,
          0.23076156147048066,
          0.16228330249470738,
          -0.08204948731364307,
          -0.23704762928489137,
          -0.1599767963882355,
          -0.2666875553110241,
          -0.22496629924897993,
          -0.26782296030102554,
          0.23490781511903955,
          -0.6360932633144697,
          0.12095109207392005,
          0.03875880812471424,
          -0.3118365357203118,
          0.3444942732381072,
          -0.042024952518611214,
          0.13888072719757955,
          0.08203648068330957,
          0.3019073454537246,
          0.2639818410225908,
          0.2093526315018329,
          0.026915426006939115,
          0.07262736146840733,
          -0.12912090339238058,
          -0.17853237887255474,
          -0.02926201184930783,
          0.2711138309814522,
          -0.1027590603474484,
          0.1845361456408619,
          0.31881372692544824,
          0.5578780542660811,
          0.4804233112435783,
          -0.12325895922758033,
          0.2299116797065799,
          0.04729174313113182,
          -0.21295267502663606,
          0.1911912997393882
        ],
        [
          0.38464930684873044,
          -0.10680452474208091,
          0.08130235083639056,
          0.3534828866475525,
          -0.14894302098635304,
          0.26708781556662,
          0.15767286167905856,
          0.21285496981016416,
          0.03653246261243779,
          0.0856966952052815,
          0.5048239284318942,
          0.275447513768646,
          0.1167109901369021,
          -0.3504420786928218,
          0.260885558821709,
          -0.2145292759405819,
          -0.20382806205813683,
          0.2417864420461989,
          0.11839261591048554,
          0.49649735294654596,
          0.2537537626239042,
          -0.3376362260299764,
          0.09746524483207884,
          0.2258185525243166,
          -0.3816359856757013,
          0.46410611857089157,
          -0.06286666731944007,
          -0.021853574169069717,
          0.014947892911726707,
          0.13432145230442138,
          0.2221280426445453,
          0.28069103647515564,
          -0.6530731857181619,
          -0.8200430250198638,
          0.07784423819074823,
          0.04357303293038923,
          0.18128381149899558,
          0.12056078047044215,
          -0.22099842621230154,
          -0.07619143486933624,
          0.5207412367913713,
          0.017411574974934913,
          0.46280921336774483,
          -0.0677792724336298,
          0.22672348406842194,
          -0.2944052183822972,
          -0.023785988948600824,
          0.0646654228691636
        ],
        [
          -0.4825297002776847,
          0.30961327088785756,
          -0.011617376567256343,
          0.022588057092774297,
          0.18580212235083982,
          0.28923154988428124,
          0.14224304369559296,
          0.008704189590349028,
          -0.3403002119321503,
          -0.14247379016400302,
          -0.5664304814963325,
          0.611191047488436,
          -0.01940741089330869,
          -0.08230172677019873,
          -0.18681762471913582,
          -0.23924160420952056,
          -0.22519440344602085,
          0.04348465922900958,
          0.414743507259829,
          0.21028475723972198,
          0.2634132026446768,
          0.2730981394885389,
          0.3104715263629816,
          -0.17323549631612406,
          0.01193242322865293,
          -0.003945319540285772,
          -0.07997533240569447,
          -0.30083817320344375,
          0.18852858002556366,
          -0.17053021792668957,
          0.02540643183397211,
          -0.09027606244860181,
          -0.8650047804716582,
          0.1844800371321744,
          -0.3431842924788175,
          -0.025668295095683805,
          0.03743098891957863,
          -0.0455907825743004,
          -0.1045259033194664,
          0.022142962503698377,
          0.6474514811335718,
          -0.19323604276229348,
          0.2900514947647908,
          -0.025923276640373107,
          -0.06795302440536682,
          -0.39770238398034025,
          -0.24452012999793893,
          0.22312020427794949
        ],
        [
          -0.2429330109068427,
          -0.02283209790510754,
          0.11751572337091798,
          -0.10076459247548679,
          0.4705375697092785,
          0.09685470456467991,
          0.13456004602569283,
          -0.25599376441562505,
          0.06821501917215952,
          -0.06300301596372616,
          0.02708225646704093,
          0.10448087048174987,
          -0.12338815196940031,
          -0.7169597120196379,
          -0.03938453134400041,
          0.14689075928477122,
          -0.6686269676881819,
          0.038488590579425684,
          -0.15295092473169666,
          0.09151362772950623,
          0.01724958651961135,
          0.32601186471611937,
          0.031128142567578825,
          0.5505723066431137,
          0.3588033597819135,
          0.24055102288297367,
          0.08774238683780781,
          0.08277370025194032,
          0.10525471286860041,
          -0.01565840265933842,
          0.1529855546629243,
          -0.060442761020403704,
          -0.026875859922532074,
          0.19538006287152504,
          -0.10655840112112586,
          0.04904391073189914,
          -0.138448392802092,
          -0.22507645394080233,
          0.17920553809472284,
          0.25387137843524055,
          0.11995594289277335,
          -0.19792903323232214,
          -0.012039636096527065,
          -0.28866532754872415,
          -0.19081191407304288,
          -0.1742322874308483,
          0.03414424759581416,
          -0.22989794725627258
        ],
        [
          -0.39506931115472677,
          0.4162251737060156,
          0.2997227667403218,
          -0.0513303254373317,
          0.36820642942825826,
          0.23379824213937017,
          0.11771128724851257,
          -0.26793248250785273,
          -0.19993928899215832,
          -0.04606194703051831,
          -0.024267240744514588,
          -0.08306589657319828,
          0.23410670542508455,
          -0.336022076921331,
          0.3068477408915106,
          0.1012783266056187,
          0.1887254087786289,
          -0.025527754513979744,
          -0.021257038725903833,
          0.11702435882558085,
          0.220762842241102,
          0.3370824588206587,
          -0.19991315590613906,
          0.4210792086564385,
          -0.15562179867427056,
          0.09353253464365452,
          -0.10265867061225842,
          0.12190482288409128,
          0.10522014142396956,
          -0.1214165450770576,
          0.028721255373078333,
          -0.061880931692774706,
          0.14642368518305807,
          0.3296438412249168,
          0.18058126513393222,
          0.2027395568080452,
          0.04571078558480579,
          -0.09931226433143361,
          -0.16537341826555488,
          0.039994402205641454,
          0.22495564456856568,
          -0.04478337288487118,
          0.21854108640267464,
          -0.3085203239620578,
          -0.03308356985688726,
          0.3274776882432611,
          0.21108864360988133,
          0.19979197669329707
        ],
        [
          0.031413942771296284,
          0.3890319664801954,
          0.0558540021235417,
          -0.35133541569412896,
          -0.20077540753030107,
          0.03221447339383047,
          -0.1292728547039608,
          -0.01606936100076894,
          0.3077350762584318,
          0.019051720182092877,
          -0.6410293848054968,
          -0.37602030134771475,
          0.029212392077281782,
          0.10759109802262352,
          0.22187534137329237,
          0.13211411663156075,
          -0.3341348645764471,
          0.30771133190956124,
          0.2527469355588287,
          -0.005887325628872708,
          0.23264111349212901,
          0.11229558612050429,
          0.3377404429569291,
          -0.08072659361112192,
          0.04669143985276214,
          0.30859190148200066,
          0.005527340567640795,
          0.07913343013102776,
          0.0996164378817521,
          0.4746577011474064,
          0.10484526083917964,
          0.14919230406773726,
          -0.24047379360889254,
          -0.0005166686398214468,
          0.41315872415661714,
          0.442065853193049,
          0.19637472939781545,
          -0.26266190559583164,
          0.10505510267061476,
          -0.21212525843558594,
          0.36924263567381743,
          0.10832541950438111,
          0.26862217304659275,
          0.07199668598792003,
          -0.7313988036549203,
          -0.06425923359017421,
          0.05612723974053372,
          -0.1542722058882437
        ],
        [
          0.3638432225143287,
          -0.05093168546744964,
          -0.49046308053158183,
          0.06333475799555581,
          -0.27279118536380803,
          -0.48163517176972737,
          0.029663693523858038,
          0.26685251131717613,
          0.2027021024434014,
          -0.06741607754284089,
          -0.6500821030222629,
          -0.4673707783198984,
          0.018185350287814206,
          0.3831024882044175,
          0.23098416415099712,
          0.11151874498075895,
          0.05478296144284515,
          0.043283283465485295,
          -0.10015434981484467,
          -0.4403651518317878,
          0.43540265746840423,
          -0.22793102704283993,
          0.05309035598137079,
          0.4180416876479584,
          -0.203822649478117,
          0.4842443235455024,
          -0.18506509026127554,
          0.08154686739459235,
          -0.07343345546058536,
          0.5110864139351826,
          0.027009028585470784,
          0.07974769521259288,
          -0.002489774526686004,
          0.17185809486458747,
          0.3015537028347795,
          0.07706456448584703,
          -0.006648954190571398,
          0.39932691744856064,
          -0.05397247173073781,
          0.18173018331506982,
          0.17489793749470528,
          -0.2826493470681426,
          0.056528266770816106,
          -0.2835003072327429,
          0.20009666463134246,
          0.20284670896605808,
          0.1586974485923242,
          0.2097556591925405
        ],
        [
          -0.053541675441386063,
          0.16687364151327663,
          -0.4940349625659418,
          -0.01837815712400289,
          -0.28199496992952866,
          -0.2023759509166596,
          0.16030220111314916,
          0.16563862030360887,
          -0.15216216752113795,
          -0.32615864339974615,
          0.08045365373153525,
          -0.21856763639729893,
          -0.05850667887169252,
          0.020465025097718123,
          -0.027273925978138016,
          0.0639568930081577,
          -0.15218960644556784,
          -0.24249312842430953,
          -0.675863261937883,
          -0.09655639510869196,
          0.307896821259396,
          0.07037874444092974,
          -0.327349432350289,
          -0.0360148039794728,
          -0.05658083694561546,
          0.4963741850993111,
          0.008506540047105025,
          -0.03592065123564791,
          -0.264854927373139,
          0.595173623998158,
          0.3757461283409671,
          0.3404628379903909,
          0.19955474409285762,
          -0.11060528755308903,
          0.10244157543294471,
          -0.09734332336246629,
          0.2137108768468597,
          0.23914946924099542,
          0.2834990620139849,
          0.01654625891977218,
          -0.04209181142672937,
          0.7662860026161586,
          0.16687953638298875,
          0.08692000806111692,
          -0.11196744623029173,
          -0.10831590652981479,
          -0.20338372309016425,
          0.226205827870082
        ],
        [
          0.08770972769490941,
          0.0653406687628076,
          0.17964728886684594,
          -0.07068848615930985,
          0.1033405050175029,
          0.11462296693319927,
          0.14066636565998353,
          0.2760169633334925,
          0.3003527664631244,
          0.3631569435972068,
          0.11744200679469505,
          0.11752393365426571,
          0.09280699460923336,
          -0.09234195266481193,
          0.11608094029358004,
          0.16753656653524435,
          0.2809841782878878,
          -0.2853872659403091,
          -0.2587303379331335,
          0.0856831865978284,
          0.18881209279853253,
          -0.265106255180957,
          -0.11338716539767697,
          0.14633887723687902,
          0.1895150371876044,
          0.6120844491779127,
          -0.05303898297557328,
          0.004154299682845155,
          0.41905808106150616,
          -0.0830197305778943,
          0.19800476749344462,
          0.16739171860466856,
          -0.35406100784565203,
          -0.4594105347770039,
          0.1931802740718762,
          -0.2826970286557486,
          0.40739370432451466,
          0.3750271083852221,
          0.11184378281181111,
          0.28892201980931487,
          0.5075179590072343,
          0.24969411037312514,
          -0.10137955715078695,
          -0.10641146248357346,
          -0.11886269031684588,
          0.14601766814142073,
          -0.30328739367937085,
          0.32104537293851887
        ],
        [
          -0.1411754347833956,
          -0.09974178209711336,
          0.35536642868588314,
          0.0891676177844487,
          -0.011193015995608627,
          0.3177392564077722,
          -0.09572134403632834,
          0.14714180148140524,
          0.16759527673576516,
          0.245943845119284,
          -0.32148153480469527,
          0.43838706544785144,
          0.2629691031712085,
          0.27568655588739527,
          -0.2579597922420963,
          -0.32709728121225184,
          -0.4902764140834391,
          0.2273321225855661,
          0.06084480054564918,
          0.2105739958992479,
          -0.15922206392844637,
          0.6217486393120965,
          -0.10765411916109748,
          0.053508888207612015,
          0.21739381656707385,
          0.2877640843882543,
          0.1999290694533654,
          0.02722719755128064,
          0.3005310321631185,
          -0.4143462175587707,
          -0.04926885494479881,
          -0.027349615526489297,
          -0.4335818802481078,
          -0.3673811034197257,
          -0.1229412507595619,
          -0.42254507861653223,
          -0.0339951287553254,
          0.24481841250992292,
          0.010246996050903227,
          0.1964519356707973,
          0.09937203278969094,
          0.3386930166673299,
          -0.08300814474123816,
          0.31947369093163164,
          -0.07314368952135582,
          -0.20025485318916533,
          -0.42402959152208314,
          -0.05372451915878197
        ],
        [
          0.20441400841076285,
          -0.03288544107475015,
          0.06648692239134808,
          0.364534562338258,
          0.10289600729399534,
          -0.06198611843688232,
          -0.2632638383406269,
          -0.09912341838631164,
          0.1475945785075646,
          -0.2179501800443963,
          -0.10923227933936439,
          0.1095171387637303,
          -0.17642564800048638,
          -0.5892154667272632,
          0.4528359377036083,
          0.056241488041140694,
          -0.5454104780330092,
          0.053120844224314734,
          -0.0546826286713109,
          0.45872835398431594,
          0.009546421632192928,
          -0.29355873514886255,
          0.2598731830432399,
          -0.2074420947295484,
          -0.12222906393706154,
          -0.46851839566641645,
          0.026895374932946043,
          0.08610611500735108,
          -0.027375292676496393,
          -0.23229367849717045,
          -0.07889277373723098,
          -0.3450974661637632,
          0.4594643207547622,
          -0.025875156867716523,
          0.2390352602689234,
          -0.020655196937062307,
          0.12203896768547777,
          -0.46973124780618375,
          0.26428896092232873,
          0.3522454905179406,
          0.16375320998731455,
          -0.01576865388037689,
          0.10181128384984608,
          0.05040448472981998,
          -0.5523316448665695,
          0.2523331111364741,
          0.15190404096189578,
          -0.08088060080456581
        ],
        [
          0.15507746646900708,
          0.0952089706001378,
          0.2606694494514115,
          0.029084664882068515,
          0.3871762193136761,
          0.03052136949734286,
          -0.31050488219855155,
          -0.1653669779273252,
          -0.12104345323439578,
          0.06089214349983056,
          0.10227915420987828,
          0.0850195491992975,
          0.07261936936886908,
          0.21978109478711125,
          0.12296851217604124,
          -0.06598584588536101,
          -0.06904023167128567,
          -0.18312539199339692,
          0.12873077314544432,
          0.3707017406525461,
          0.16249978112575603,
          0.17680126400478388,
          0.33110279437467816,
          -0.08535550322742698,
          0.20602690670937604,
          -0.5945254603118324,
          0.14290837242433707,
          0.04409497552680812,
          0.027535193530729793,
          -0.1149947595001863,
          0.1365946536605079,
          -0.0723157413864683,
          0.09061263206140811,
          -0.0697167474624493,
          0.20545383126294212,
          -0.12477875229771464,
          -0.09526209856702557,
          -0.26187422403031296,
          -0.008796907262362689,
          0.07194872874535521,
          0.016232202442392252,
          0.10360108278548313,
          -0.03992713864986472,
          0.033886649001362346,
          -0.40347486333750987,
          0.04413752306442136,
          0.17656337464605634,
          0.19344266806603846
        ],
        [
          0.1672117384823664,
          0.17147215918854927,
          0.013997471445709397,
          -0.022697299838796346,
          0.563527234525665,
          0.08994011754979267,
          -0.2138782027206427,
          -0.2588793812085501,
          -0.010620119051768536,
          -0.1896802115450154,
          -0.19688656589038922,
          -0.046221740159633345,
          0.34989574976752874,
          0.03424424214421592,
          -0.19294783816314387,
          0.3195867202921398,
          0.19946111108832731,
          0.4317182421785161,
          0.29016978133165994,
          0.1667635550038031,
          0.4378330354793133,
          -0.14726791230928815,
          0.46157807035599746,
          0.20094976139404142,
          -0.15401432716990904,
          -0.07742918413730564,
          0.09976833845042146,
          0.1692408586232714,
          0.22151586112987837,
          -0.22488125131753334,
          0.3550014744797755,
          0.12564311608436363,
          -0.5099407423405615,
          -0.3243211247840375,
          0.22966613774197892,
          0.06334405805004592,
          0.23374135000051813,
          -0.3434368154068796,
          -0.34140396423451647,
          -0.16647734370558603,
          -0.1042939397410984,
          0.37036321171347714,
          -0.05082498111445591,
          0.13081654447728297,
          -0.31627788307164767,
          -0.26049978299912613,
          -0.16205768686849734,
          0.08216099221567956
        ],
        [
          0.14593670388276608,
          -0.3369498810321331,
          -0.16654807376190553,
          -0.13781344635933748,
          0.13545815714721782,
          -0.21781334279202705,
          0.11767764839431627,
          -0.45523318444980204,
          -0.016856870561566723,
          0.2899792463378811,
          0.3591817942997927,
          -0.08303672709970204,
          0.6086746896866174,
          0.26729819352040385,
          -0.1434002963442233,
          0.32445333692433415,
          -0.39755958357854543,
          0.061852655871068404,
          0.1245152269950706,
          -0.14608175952991834,
          -0.05075220419951618,
          -0.3157572366344198,
          -0.13698911019909996,
          -0.04110721660276422,
          0.2666234968659403,
          -0.5015256595951106,
          -0.017524707511361485,
          0.3189391853823102,
          0.6107214424227388,
          0.25771927583154985,
          -0.4281186488411405,
          0.5591949239854458,
          -0.13153439248938134,
          -0.05656458889512101,
          0.17008542079899916,
          0.16425529963191943,
          0.15658189521485325,
          0.23422443625443953,
          -0.5715017939192465,
          -0.4660237053705576,
          -0.4310774960714328,
          -0.06691398743455301,
          -0.4686697220111979,
          0.47739906131784793,
          0.2441769130206081,
          -0.0038035458906607706,
          0.7088222337828352,
          0.20563925095712723
        ],
        [
          0.1550767340954954,
          -0.20769389100652966,
          0.23625389723590007,
          -0.13719830346726633,
          -0.0003506789533812868,
          -0.8301832322692649,
          -0.15663638542712777,
          -0.6200111631342419,
          -0.38048424243478124,
          0.06724931690008296,
          -0.21071176355529658,
          0.15596858749717207,
          0.387584498916613,
          0.04149905222498415,
          0.357262968530072,
          0.3321500658236918,
          0.2739861948789772,
          -0.15493180325003328,
          -0.1615354278767801,
          0.02522732426543203,
          -0.047180186771406694,
          0.060515461412579324,
          -0.30602843942455926,
          -0.3331425134186446,
          0.33352577504532666,
          0.16806651046840654,
          -0.045460527244150846,
          0.5705214619600626,
          0.339723003975656,
          0.11933427157582567,
          0.07888165185127681,
          0.1083287344819773,
          0.627191664075357,
          0.169364156793319,
          0.15393906270869695,
          -0.283496462818515,
          -0.0654026992414351,
          0.015483968008844936,
          0.1346537662654392,
          -0.014398618427169987,
          -0.3343794893714148,
          0.3547466255129228,
          -0.30816720659881425,
          0.2404736839040375,
          0.12967247965323508,
          0.13412666382810448,
          -0.5336863728661301,
          0.15579864693054793
        ],
        [
          0.4069186675845738,
          -0.14354796234102848,
          0.06099878517545889,
          0.08493662911712022,
          -0.18261207341948807,
          0.16963203757206455,
          0.0367483006085525,
          -0.3397741087949576,
          0.5073699593306805,
          0.1267415695254859,
          0.017978935279192584,
          0.15612269697964634,
          -0.0732585307768,
          0.20743116658806027,
          0.07354753081090801,
          -0.029357186891694222,
          -0.07088498282746913,
          -0.15966815619115327,
          -0.31105709420125616,
          0.2985744105233311,
          -0.16012211232856627,
          -0.054869063561425846,
          -0.6044844936609114,
          0.06534734108563245,
          0.2457844662764715,
          -0.3693133248446362,
          0.2066679294515575,
          0.06500404752835376,
          0.34136110616042187,
          0.4180923402227134,
          0.03540995469052976,
          0.10121320303422272,
          -0.46634832050608316,
          -0.12719671941175115,
          0.17211437689429238,
          -0.5548398723812403,
          0.07398113360674889,
          0.11030912613056523,
          0.4482702130385432,
          0.28650325693239315,
          -0.22786313021360102,
          0.4853680351739293,
          -0.2283996300115652,
          -0.06439822858109084,
          0.20661849623027254,
          0.2073831124139743,
          -0.3861103360374132,
          0.4412390644562513
        ],
        [
          0.07064282975184119,
          -0.1276359737471551,
          0.0555606945346142,
          0.10123954852587333,
          0.10476610609692917,
          0.5721488911098326,
          -0.1408162632258243,
          -0.3920912708021317,
          0.06108082210833087,
          -0.09519021726113944,
          -0.29990356513752714,
          0.0405961386731669,
          -0.22632135986651147,
          -0.050021898399759845,
          -0.29236907175450133,
          -0.23494931410720798,
          0.6432242058337511,
          -0.5355549167474762,
          -0.1427172205544415,
          -0.01683307607983244,
          -0.2815429136336273,
          0.37579977905565354,
          -0.7936625531289535,
          0.31862557612810366,
          0.1447477112581599,
          0.3001564961485126,
          0.1390213269718417,
          -0.24814589671304238,
          0.4730466363989937,
          0.12445862680668389,
          -0.44403049313976817,
          0.04296198052281182,
          -0.0856490248278672,
          0.043760614674805375,
          0.4139777095204544,
          -0.7401320253305237,
          0.09237990088080071,
          0.052985682388562716,
          0.5962346232999156,
          -0.037354954558421374,
          -0.1569418872463908,
          0.24289446582193167,
          -0.07308141887474696,
          -0.11866069690512968,
          -0.37857740094156034,
          0.17163093890021033,
          -0.14028796803575055,
          0.295981695487316
        ],
        [
          0.11936561557914786,
          -0.00910703279913639,
          0.17550836950204193,
          0.4600980756142759,
          -0.04985747219959172,
          -0.3592546840180282,
          -0.4402496640917414,
          0.03499131721975682,
          0.37867660421787874,
          -0.08066622980962343,
          0.1308155909336079,
          -0.3529638258675829,
          -0.13584375277442143,
          -0.08441375870877717,
          0.3934055523069594,
          -0.010011461191691873,
          -0.5994491392732929,
          0.36379018642548866,
          0.2884510524714748,
          0.038908154385810134,
          0.22019307082555384,
          0.031167854498417878,
          0.32688792522533644,
          -0.4030857328015449,
          -0.052205949481150316,
          -0.04663732853999396,
          -0.03921396254981604,
          -0.04012652607605956,
          -0.15459502207429268,
          -0.26237946104025633,
          -0.5258170346296928,
          -0.07249073855682489,
          0.1922549799662919,
          0.10804402746603099,
          0.22710032473895594,
          0.08694461054185143,
          0.3074273620979199,
          -0.07221456752202894,
          0.24180862212705362,
          0.17572847298348465,
          -0.09379315894787014,
          -0.013538362731362311,
          0.13913194386169683,
          0.00042408987492856406,
          -0.5871132467702623,
          0.43604829130307177,
          0.2008067631764285,
          -0.02613403227840899
        ],
        [
          -0.1410008453419651,
          -0.14985249470305226,
          0.13820543139937985,
          -0.04231894432812605,
          0.18193923938581244,
          0.21941690698555857,
          -0.4563177206442761,
          0.053241707213705435,
          -0.011468985211906889,
          -0.5221415734907818,
          0.03549828890280245,
          0.026939516728027153,
          0.2055644618425215,
          -0.18521714672035994,
          0.03501793189621563,
          -0.016273169037968153,
          -0.37186595743936457,
          0.1030224554240584,
          0.0794622865451887,
          -0.1284576295597147,
          0.2329152807880984,
          0.1347403556863217,
          0.1238958832694203,
          -0.1939351016478718,
          0.3369170530672619,
          -0.42100108401196057,
          0.3827002998109976,
          -0.02278320231447411,
          0.09945438174150524,
          -0.056207742873432116,
          0.19501211825703582,
          0.08447356114517492,
          -0.24725547313546598,
          -0.17359116814853634,
          0.23652332233587586,
          0.08185330369997552,
          0.032980145826037796,
          -0.4569188287472515,
          0.4752427561695425,
          0.15669953923581978,
          0.038378483784331265,
          0.18367788142534597,
          -0.05325039557859177,
          0.06494903209554707,
          -0.16378961644048226,
          0.057314290575602896,
          -0.1888382618456334,
          0.2512410127396781
        ],
        [
          -0.20732305617315755,
          0.05650495306081218,
          -0.06427108465137585,
          0.0875573181934473,
          0.2921939710725091,
          0.3319702595426595,
          -0.25756755998931563,
          0.2944667708704724,
          0.05354891919679608,
          -0.28523010701421975,
          -0.10506594622213827,
          -0.46358719422921774,
          0.012353647694854789,
          0.1805363485991368,
          -0.19048931685995724,
          0.31427582866312626,
          0.21179025013308458,
          -0.06827153755287774,
          0.18954927735479252,
          -0.29678265587781216,
          -0.07880537928096597,
          -0.09730920340305757,
          0.28164967227212656,
          -0.02969368345916068,
          -0.42785032969484627,
          0.046906141301108886,
          0.1905249327828449,
          0.23060888597453835,
          0.3679012173237142,
          0.0385770623301608,
          0.3219656418644714,
          0.16790131655299584,
          0.012148939477178431,
          0.24507515145681524,
          0.13966478813129518,
          0.026014111104380663,
          0.3387988306502599,
          -0.5868080285186679,
          0.10727301883321194,
          0.039592029755925746,
          -0.18561931168716267,
          0.02874983821950264,
          -0.16768268324203622,
          0.23794441498960117,
          -0.17265209217071414,
          -0.2746426017986703,
          -0.05124246404028494,
          0.2650840889488698
        ],
        [
          -0.2328083826056883,
          -0.17363596166406828,
          0.11540479461075187,
          -0.4277167267682509,
          0.554259383833112,
          -0.15350681737731361,
          0.40063108022020116,
          0.43473539652522264,
          -0.5038972799180056,
          0.4060092474272986,
          -0.03579843602649238,
          0.30814477556023284,
          0.5711807854795582,
          0.4305486967412775,
          -0.16698186162069295,
          0.5824261496908121,
          0.416674471168757,
          -0.15965849407020158,
          -0.4261041221401926,
          0.18449023883049293,
          0.18917582035970928,
          -0.37644720054810393,
          0.1526581958501053,
          -0.00195029464085061,
          0.039559880179820595,
          -0.09810081054684998,
          -0.40629571175024226,
          0.5819091637981506,
          0.6016396409173305,
          0.11712030083329272,
          0.19542626354903914,
          0.2873595284124633,
          0.22097505333986187,
          -0.0969098431590784,
          -0.11911907407335227,
          -0.15527732817840717,
          0.3219315202087056,
          0.15883252783255014,
          -0.4137178120032972,
          -0.3500257067257305,
          -0.09125055543023598,
          -0.016816999783253465,
          -0.3873642716468362,
          0.2271055936559625,
          -0.005752499963756578,
          -0.2589720309740976,
          0.4221707696507547,
          0.2092088281627773
        ],
        [
          0.2361470847228486,
          0.03854609596111458,
          -0.3220272508236099,
          0.07028992628013067,
          -0.10381139186481149,
          -0.7067057249302134,
          -0.2018862027413519,
          0.011475989470497942,
          0.0615578199848273,
          0.4335526214224678,
          0.3654157913621819,
          0.3697890921155159,
          0.3501592084359489,
          0.16057781971143392,
          0.44015092693176755,
          0.04422505632527583,
          0.12173343321324889,
          -0.25450014229893814,
          -0.4737813879812017,
          0.27204226291405464,
          -0.4607129565272378,
          -0.4453718364258034,
          -0.3711180861339632,
          -0.11338851345925217,
          0.045532659440412314,
          0.11069331020226507,
          -0.12273686119110239,
          0.03202208481773928,
          0.3180727851879622,
          0.20972616651057013,
          0.07735127441647903,
          0.010703626221635783,
          0.40502575003489977,
          0.21296076841835873,
          0.2768986866760785,
          -0.04895593983647424,
          0.18173809675775032,
          -0.018556055311563024,
          0.12576380442581053,
          0.12024583951036692,
          -0.07457264677758019,
          0.004645354396449029,
          -0.24011461382356086,
          0.3750235439473686,
          -0.07920601389947267,
          0.2801608614183909,
          -0.39219518516737367,
          0.17255684723830644
        ],
        [
          0.18525003053545264,
          -0.08582172348931193,
          0.0610650356157813,
          0.13187561138725387,
          -0.1156647986354925,
          -0.036448036028994324,
          0.06265019989617995,
          0.1763098648025658,
          -0.13129048334811252,
          0.11066890874630252,
          0.29996927995458056,
          -0.04471807144959334,
          0.01298084521553808,
          0.2713488711871574,
          0.26618114986956803,
          -0.2271687095615529,
          0.07236015049740185,
          -0.46232645689046786,
          0.20753887389168793,
          0.3052972408966719,
          -0.40821819581569563,
          0.4387645088905149,
          -0.19976058034161556,
          0.23387945492061935,
          0.018436887584184804,
          -0.4193374282417198,
          0.42677185808835444,
          -0.03078027509234219,
          0.29146761023410234,
          0.15316022430780604,
          -0.07205455478971666,
          -0.38559353882162506,
          -0.11508129436057725,
          0.4147169938048273,
          0.1840053706460187,
          0.07998826257696715,
          -0.13161486137119013,
          0.07380102367636616,
          0.4155930399316868,
          0.03632779906124691,
          -0.24625741036792628,
          -0.021788639147149208,
          -0.12525002265036414,
          -0.32969053425909844,
          -0.5082427076856069,
          0.16748732404140315,
          -0.1160681529013033,
          0.004846838555988384
        ],
        [
          -0.2140266698648783,
          -0.1287426099864578,
          0.044195280226427394,
          0.03492357049468929,
          -0.19937273427881885,
          0.2781283795537465,
          -0.3851023706577753,
          -0.2647659040356884,
          -0.00847367137185254,
          0.07761195393222699,
          -0.26691960402589987,
          0.0978696282161604,
          -0.22517321587299116,
          -0.1757755735207746,
          -0.14854083283604366,
          0.31909458947168584,
          -0.07500114015960695,
          -0.4140064691481815,
          0.09333340288787761,
          0.027511387425935473,
          -0.10786835972141744,
          0.09510440809213096,
          -0.3145843943690567,
          0.16275342796531989,
          -0.01812025838348609,
          -0.2969302435632336,
          0.5873373590025924,
          -0.07358715473770464,
          0.5126356999231878,
          -0.1789636743468493,
          -0.5853317898772371,
          -0.19981690677230238,
          -0.06526341244963418,
          0.4191712089292241,
          0.4786164087742312,
          -0.19055028884137787,
          0.025137961348551063,
          -0.08668898275230894,
          0.40661340720441697,
          0.28528448741182194,
          0.13306415768341562,
          0.024956476167916592,
          0.04145782953869988,
          0.0493739590869069,
          -0.11949696480744282,
          0.08363848410543194,
          -0.1452611280733871,
          -0.014435025471885172
        ],
        [
          0.07502019747660618,
          -0.07022007292791561,
          -0.1372829842617234,
          0.6320304434467353,
          0.08526780415291385,
          0.11035382432813667,
          -0.0916545899375835,
          -0.18300577866267229,
          0.33933322452824527,
          -0.32412552482306756,
          0.3886210399835294,
          0.22299276427528222,
          -0.10941828085046214,
          0.3656992914288952,
          0.05548004837627136,
          -0.36266478698408106,
          0.15187826691605233,
          0.0744692042625566,
          -0.029941000278781927,
          0.4369607462311365,
          0.09156029268303778,
          0.08052981933461192,
          0.04772612732952579,
          -0.10145742681350235,
          -0.15784239764803673,
          0.23224109508998417,
          0.15459333199996458,
          -0.08507191291911596,
          0.04221891164957274,
          -0.046208651399112045,
          -0.5777897535473132,
          0.4398387471669674,
          0.10582791865544508,
          -0.1869435256178297,
          0.15452593509548784,
          0.061483566426909615,
          0.17929582129928706,
          -0.16951275608751784,
          0.21548288438811833,
          0.15005816821811052,
          0.06709526159167804,
          -0.37622607047136924,
          -0.09106620564292962,
          0.3494624946353502,
          0.12819942431601633,
          0.3275986258715202,
          0.24280067744040917,
          0.40623513606793055
        ],
        [
          0.1999575967547881,
          -0.31155634080597067,
          -0.07106166587716234,
          0.2423818077419031,
          0.16911285920369082,
          -0.16226134172212384,
          -0.2131194786302447,
          -0.3892335243387133,
          0.06670349101931035,
          -0.25865222935842896,
          0.023371404072535185,
          -0.2800743280682691,
          -0.1943043447429875,
          0.6698591484756478,
          -0.08429156911101549,
          -0.3537902612625918,
          -0.013073192363888323,
          0.40471535344970977,
          0.23742568025704403,
          -0.07120709357646586,
          -0.06186227991026907,
          0.03163701710202695,
          0.0884244358728327,
          -0.1373395131004083,
          -0.19845176462168365,
          -0.3925049663177544,
          0.04470383512666517,
          0.17000714003131187,
          -0.08223703561371688,
          0.1278967046976623,
          -0.06372877559935372,
          0.00041133477131308704,
          -0.11230532263542407,
          -0.06736932891602264,
          0.2202588179105502,
          -0.06929365405124717,
          -0.0057489837668179295,
          -0.20672200683414677,
          -0.014267811959513845,
          0.2185804774209215,
          -0.13952748284574043,
          0.0589619151724751,
          -0.20372033094360809,
          0.20883195929321338,
          0.07289214920150466,
          0.20789897483724812,
          0.23369169984542498,
          0.38651199461824043
        ],
        [
          0.4191333440072235,
          -0.28475011515936705,
          0.0013273001289336361,
          0.10095040505888356,
          0.12858767425434717,
          0.3899563698101986,
          0.17233203317248555,
          0.09292568546695862,
          -0.23153005537357096,
          -0.3520031526830293,
          0.28444471531925725,
          0.060691505657651836,
          -0.0445607271063585,
          -0.04055664090464012,
          -0.4664371169809365,
          0.06635143818643603,
          0.05684211612656502,
          0.182070886898324,
          0.06515554453524448,
          -0.043841900003106546,
          0.12270577529988999,
          0.17790652693598494,
          -0.047841839135384534,
          0.00541209723166682,
          0.08798259886470806,
          0.22452005306315728,
          -0.02033274682379809,
          0.23427220244674368,
          0.033678790170166395,
          0.22362305536933835,
          0.20304022452938908,
          -0.3356784432733954,
          -0.22823097606484916,
          -0.19794386162158467,
          0.03129535206017788,
          0.20713930317052487,
          0.24305216514757316,
          -0.22351904449602222,
          -0.03953455648513081,
          0.2074659195843434,
          -0.17099956720196513,
          -0.07973781862794481,
          0.10765761961198303,
          0.1667939625640346,
          0.07114822260325278,
          -0.21958121050576293,
          0.13026615175724807,
          0.3134728121668447
        ],
        [
          0.3900219210733072,
          -0.022579539509811047,
          -0.4280370952709046,
          -0.6382455289643693,
          0.3634044592739875,
          0.4433311903535393,
          0.2897446918230204,
          0.15411392828860676,
          -0.3170792740556674,
          0.7378057993722295,
          0.21297764670296707,
          0.4811329419895561,
          -0.333829507966727,
          0.10738362896758617,
          0.1709143649331753,
          0.5452258705372172,
          -0.05887007141572492,
          0.24651706853476854,
          -0.3688257697465849,
          0.23379344872067148,
          0.18130473802369115,
          0.4918593675199881,
          -0.33731495107117926,
          -0.3165039092923476,
          0.442121730643957,
          -0.7511497255328348,
          -0.4029905046998954,
          -0.3319585282908843,
          -0.0980029181602883,
          0.1541153520795829,
          0.49367327080370255,
          -0.2954584598350575,
          0.2820311959319522,
          0.24195085713057143,
          -0.08265627145004564,
          0.05656564116944085,
          0.39836648458942664,
          -0.0643968768396856,
          -0.38748371548937044,
          -0.15266660216187367,
          -0.22228174698028402,
          -0.1649023761683512,
          -0.22527972556346448,
          0.2886376454122307,
          -0.09402221715560474,
          -0.44598334238303505,
          0.3427847096377696,
          0.4854579629137341
        ],
        [
          -0.13344483484792763,
          -0.10555930136492311,
          -0.6394926892356568,
          0.24190120299870913,
          0.10617575983939999,
          -0.2047883274641154,
          -0.1681950739352669,
          0.13170098057247825,
          -0.31213845685026664,
          0.40211225052820865,
          0.5473736917171603,
          0.14876752801624457,
          0.05585733349555204,
          0.21816924403328586,
          0.5207563458810639,
          0.30266593972936523,
          -0.059518915667029965,
          -0.4866022532729566,
          -0.41441575224289545,
          -0.058352675235418566,
          -0.30887452622653544,
          0.2776657936873409,
          0.022057357526924757,
          0.2428733470392923,
          0.2658952831007515,
          0.03541768969898387,
          0.09574248231392797,
          -0.21863524904665035,
          0.19099430010130364,
          0.32718225064608325,
          0.465773174635263,
          -0.4719880987723252,
          0.5872438869231535,
          0.07622015131771484,
          -0.014694667517138998,
          0.0047432530925756505,
          -0.3470662363370572,
          0.1332200167049945,
          0.029421029013887483,
          -0.1725582356295334,
          -0.44698269192533346,
          -0.12641768070794396,
          -0.08203481355934795,
          0.16996160374462246,
          -0.35744788943593586,
          0.2613893805095486,
          -0.3375379793047499,
          0.0789167680710078
        ],
        [
          0.24057586050413968,
          -0.20807327412399093,
          0.00979191047729178,
          -0.07561935091216505,
          -0.3485251224687004,
          -0.13981126188188775,
          -0.12966300867422098,
          0.2355212503034485,
          0.13977960078792093,
          0.2531165630836231,
          0.3114175416997296,
          0.16165124846332182,
          -0.15413811129609964,
          0.17131297307735371,
          0.05795174320071669,
          0.5090211994769112,
          0.011948480530250633,
          -0.4131751156414486,
          0.3429668938898841,
          -0.3835853054571016,
          -0.35534964268007524,
          0.12255606718001168,
          -0.04181208079067303,
          0.19282776353592798,
          0.17942750398651636,
          -0.6471431025701975,
          0.5292726987773079,
          -0.09085688413066934,
          0.24567609418217456,
          -0.12750607003482167,
          -0.2555129701001447,
          -0.29240952565283923,
          -0.321922882841719,
          0.5224129143491981,
          0.5005860430408423,
          -0.0294326193771988,
          0.10269860102020618,
          -0.266918939334475,
          0.35922305835222773,
          0.26604629115246137,
          -0.42578304551969937,
          -0.13676158613959155,
          -0.3543047832477732,
          -0.17832649085232682,
          -0.23152895903357804,
          0.06078441642601599,
          -0.13405738664030392,
          0.24896769287532594
        ],
        [
          -0.1785635191051737,
          -0.5093983062285737,
          -0.142485160386202,
          0.412432749387277,
          -0.07031186914899952,
          -0.09849246063650516,
          -0.1583781032734876,
          0.014732474477987423,
          0.12730956515224298,
          0.6418319237912417,
          -0.27887638750326765,
          0.15120132225990202,
          0.03964093197513692,
          -0.02094240366342152,
          -0.2269303848663489,
          0.46836456594781894,
          -0.4365254109650917,
          -0.49206106574634617,
          -0.002965386592791182,
          0.19354098707454745,
          -0.43962824004591233,
          0.05006537559217854,
          -0.15209739517080476,
          0.35662992787278947,
          0.09743945739504789,
          -0.1429077311924865,
          0.48410926730321663,
          0.21669301526340343,
          0.5004022560574677,
          -0.16021395567235874,
          -0.5740336256211894,
          -0.1991112233287855,
          0.0839033439049498,
          0.1445827123870232,
          0.28487132198941495,
          -0.1674347279548381,
          -0.31672522350953974,
          0.16343482654395333,
          0.3340967621166186,
          0.4099307557289016,
          0.13780972986548554,
          -0.11586082160193609,
          0.15655365607413832,
          0.4709047369019234,
          -0.11336345358761779,
          0.35975513184681235,
          0.05475959291692726,
          0.04214208777752497
        ],
        [
          -0.023384255615932294,
          -0.4493017561132361,
          -0.04924507079343435,
          -0.018382455424044444,
          -0.01911110590079689,
          0.2593488992940371,
          -0.14858292476767115,
          0.04032763953107145,
          0.2044006691542784,
          0.20613827984086192,
          0.23883852622447016,
          0.18880736205362444,
          0.25578995296936174,
          0.019231511707403958,
          -0.12081287154075634,
          -0.12696381480162128,
          0.2982234448929429,
          0.30381974183695626,
          0.14150052126758322,
          0.16353792752948723,
          0.15029937969928964,
          0.023861713785137253,
          -0.10278859546374342,
          -0.44562488773933856,
          0.3794568521369201,
          0.11031902247545507,
          -0.2935364842550727,
          0.33172101827357614,
          0.4658737797768002,
          -0.3647584316790375,
          -0.7881768111239805,
          0.6252426955895438,
          -0.0036365152572555887,
          0.15488407584755154,
          -0.09553177623899914,
          0.05049544199028892,
          0.20700655379294888,
          -0.04620570566801838,
          -0.008914858492997904,
          -0.3762678870396511,
          -0.024822605810124514,
          -0.22860449998763316,
          -0.18055274054569773,
          0.32751456118545896,
          0.3180013242778339,
          0.22643441756758778,
          -0.05205104621943725,
          0.35527250674310445
        ],
        [
          -0.10280659083626414,
          -0.15573058300344222,
          0.06053230473088137,
          0.1445875180997366,
          -0.027886053225789065,
          0.015246752068315174,
          0.06767406664535809,
          0.08391501857740295,
          0.04782241500219425,
          -0.20303082033684472,
          0.21461114553890015,
          -0.05209253646019533,
          -0.13622000872328893,
          -0.06462947369538442,
          -0.4193231864285538,
          -0.032167522515302714,
          -0.018552268417618714,
          0.2712386100415069,
          0.026135591352055593,
          -0.3205531184077075,
          -0.06645485402914711,
          0.24162369601788988,
          0.10663758531382785,
          -0.15619163359287278,
          0.002434477487513295,
          0.5319288402895985,
          0.4193776888849794,
          0.12719955896601642,
          -0.007116958873545088,
          -0.18968597110774765,
          -0.2034891472189371,
          0.0925237090086011,
          0.005791710631810344,
          -0.06176516188641994,
          0.2300906131900431,
          0.4002092900792001,
          -0.077076099207248,
          -0.04468845093007066,
          0.22290017042253712,
          -0.16118371444881693,
          0.20480895861007545,
          0.24030412978447524,
          -0.043854214158114295,
          0.162166894226804,
          0.36564831310929946,
          0.30487771587129386,
          -0.11843912966920456,
          -0.023030046066428972
        ],
        [
          -0.6016238506539037,
          0.24290970314007373,
          0.03015278124449374,
          0.17147403824439797,
          -0.015357257898563322,
          -0.11247678037583847,
          0.201836379556982,
          -0.250836389185068,
          -0.24542403141285024,
          -0.27270224845367597,
          -0.046243413359631856,
          0.22648197312045157,
          -0.10110365018790854,
          0.5733668412329469,
          -0.16480513196787483,
          0.038638542158093814,
          -0.0009532252783563283,
          0.19013332567269445,
          0.28244748800544,
          -0.13230983839075816,
          -0.4349353894177737,
          -0.20290121240074319,
          -0.1352964425232309,
          -0.1864357304739837,
          0.20297214328899482,
          -0.15071386481464305,
          0.08613329182348967,
          -0.2072757523964168,
          -0.09890284517803047,
          -0.10466072958076585,
          0.15960473947573495,
          -0.140826959566286,
          -0.10609551836730557,
          0.462656887648416,
          0.12303594259877797,
          0.3850507495458429,
          0.08210674811563583,
          -0.29901615757266997,
          -0.0800020432341294,
          0.024272494741511542,
          -0.266628116035904,
          -0.6321236405292164,
          -0.26518347449190327,
          0.15673615387121959,
          0.40532698929729555,
          0.14517199529223127,
          0.1833258994903718,
          -0.0010918909022372709
        ],
        [
          -0.07498233297572736,
          0.36575176151944366,
          0.07870645467977024,
          0.012205689435683583,
          0.20233535970730301,
          0.48283314433461716,
          0.3617564564808918,
          -0.6903084247565291,
          -0.21257940982710444,
          0.2763012817587433,
          0.14702852171350164,
          0.036613925460098416,
          -0.29570688680961194,
          0.2040244346134546,
          -0.03282770111402926,
          0.24942789234157864,
          0.16365988518804894,
          0.4119415587263794,
          0.13425626053331383,
          -0.15623064367133535,
          -0.4472812390783435,
          -0.03157352631036317,
          -0.2469068789960293,
          0.3118436420981466,
          -0.14194871673865384,
          0.21989285334476585,
          0.006835526928919243,
          0.06136647893227705,
          -0.4467648185132946,
          0.18477899055011202,
          0.16164195414440297,
          -0.20167788730171265,
          0.17512068644331882,
          -0.37724862551128285,
          -0.02359995800121584,
          0.4413122247567278,
          0.005981777092805877,
          0.20129636547341143,
          0.14352481783413434,
          0.0019160664073821203,
          -0.2199886258545795,
          -0.27222688540548395,
          -0.5183427317996415,
          0.38754591473984773,
          0.15690370389399647,
          -0.25076377387708904,
          0.6021633190530534,
          -0.33345559008471765
        ],
        [
          -0.037003914708555505,
          0.3041702612100544,
          -0.4110283302871749,
          0.06380274658757097,
          0.26412489908515513,
          -0.10755345897709313,
          0.22058948120480532,
          -0.359552322470991,
          0.23965060809207628,
          0.018083794795029366,
          0.407708692741881,
          -0.19723538659489162,
          -0.1797626658242322,
          -0.8260353640840926,
          0.16781736748962933,
          0.0019302649867490099,
          0.25185267601874395,
          -0.31202643685071724,
          0.11784772696376329,
          -0.20302083139838076,
          -0.45172949355820613,
          -0.40508973811273613,
          0.1427368715631039,
          -0.3342137798628113,
          -0.34634044358910965,
          0.057484031237965055,
          -0.2578303543816576,
          -0.10534839775248817,
          -0.27921353071547783,
          -0.3099990750385871,
          0.14236062849640596,
          0.2846291032325743,
          0.3094073823926388,
          0.4812231233675936,
          0.3053005665443867,
          0.13609616811893027,
          -0.02353362497233342,
          -0.0787555708019577,
          -0.00824122005620869,
          -0.047224943015908905,
          -0.3051380423376712,
          -0.36730229661528774,
          -0.013533139733434093,
          0.35836004924452264,
          0.2873148454868824,
          -0.33358775835669247,
          0.003323392055279764,
          -0.07472191855670125
        ],
        [
          0.14057794596947562,
          -0.11875006070365234,
          0.23020604385153276,
          0.11211137226089844,
          0.33444809285894567,
          0.030601416906387013,
          0.10399913961533874,
          -0.029069059078799978,
          0.0981785244239858,
          0.08288323292796414,
          0.45022684181558437,
          0.5375894947399549,
          0.0650323107130472,
          -0.2676479774056628,
          -0.3756014536420335,
          0.09332716141130036,
          -0.34221156882275033,
          -0.11387682624109538,
          0.4552955682389152,
          0.3144979959293425,
          -0.28702839003888264,
          -0.228561179303853,
          0.1552458344178769,
          -0.23910933175327645,
          0.12267824286829031,
          0.15729409090018703,
          0.4147029380188901,
          0.001297320384673774,
          0.28200339083636417,
          -0.36484617060538416,
          -0.437934420536413,
          -0.00816403442953526,
          -0.3295795606069991,
          -0.36232855943020964,
          0.4453700790284142,
          0.0661218229086099,
          -0.161366492485265,
          -0.03621667006669595,
          0.3648609530732842,
          0.44021769721109905,
          0.12626912136885204,
          0.2021380042436596,
          0.280900154893715,
          -0.4114103174427886,
          0.42386333721710545,
          -0.2714990821183812,
          0.21002715602026242,
          -0.1449133381918016
        ],
        [
          -0.27245421461561947,
          -0.16628564456394568,
          0.29550075098828643,
          -0.056247901122946316,
          -0.4280538316139547,
          -0.11513799046604534,
          0.00106213122614533,
          0.08783845927956949,
          0.27834938807932635,
          0.06454704912910016,
          -0.3845037823198766,
          0.3050175437996104,
          -0.005945234820413549,
          -0.05122619403804838,
          -0.39826331578418567,
          0.09208295740169833,
          0.1475483586300044,
          -0.332248592711086,
          0.33138417892259764,
          -0.14972229152461414,
          0.10562305421989354,
          -0.16549940082801662,
          0.17900446411835547,
          -0.10942090499873823,
          0.31002606522518733,
          -0.10556655246565273,
          -0.1252887204061215,
          -0.18568740726396013,
          0.21420828572528636,
          -0.43017380503617403,
          -0.3090292151255633,
          0.10643204189182771,
          -0.4691820504878739,
          -0.03294952536092724,
          0.49463149455929684,
          0.2202437657594269,
          -0.21855812743306885,
          -0.04412034833046262,
          -0.11651223307883816,
          -0.37303765559927143,
          0.05286278085612342,
          -0.05902354880543408,
          0.10902453238722683,
          0.5311098620277653,
          -0.26500072615092435,
          -0.14471195380838867,
          -0.0006888652290259769,
          -0.11756840140533213
        ],
        [
          -0.06268058065694868,
          -0.13103616514517438,
          -0.13080936763228626,
          -0.47164875302087944,
          -0.06053214084866802,
          -0.33489492226546713,
          0.21787357320792305,
          0.1725462092503187,
          0.08474563462419459,
          0.09033823933628678,
          0.11714889846691365,
          -0.2912939206757147,
          0.4840166353674513,
          -0.09481641592137924,
          -0.2065653708743995,
          0.08796954642921476,
          0.15182812755040084,
          0.15452565968152931,
          -0.2285109513029922,
          -0.39163170138596504,
          -0.13260034877771548,
          0.011519158239659023,
          -0.12754066627430163,
          -0.37647046345470553,
          0.07714740262453834,
          -0.19315285699146856,
          -0.34855889390336475,
          0.1374099454594237,
          0.29886041936167324,
          -0.345077994489228,
          -0.3636081388208656,
          0.5420572672903157,
          -0.04019704421122725,
          -0.18116747010652412,
          0.05789533350743871,
          -0.29011549061748654,
          0.008595665066247716,
          -0.0032630041653115695,
          -0.20469015206845223,
          -0.25566932897086925,
          0.023488926134503884,
          -0.13951387772318877,
          0.18266033041496185,
          0.2612198146922027,
          0.583174408005412,
          -0.2884597840152287,
          0.10642628600236421,
          0.1724605385392516
        ],
        [
          0.217265393324118,
          0.21526722826474254,
          0.15073769502454448,
          0.0917404721594265,
          -0.18606626449144872,
          -0.7645467314726165,
          0.16757889636672044,
          0.2590671829881282,
          -0.29935377312417116,
          -0.009251132951709916,
          0.07710636460452457,
          0.005143947774788142,
          -0.085897164244262,
          -0.06853059769246768,
          -0.544353834829925,
          -0.008928990710750526,
          0.10490638695473611,
          0.24838731723930377,
          0.5936470999078698,
          0.3854946793732949,
          0.18975747101848625,
          -0.3481748692264686,
          0.14328347909024097,
          -0.44748592544250265,
          -0.17867715881754673,
          0.26424495378942436,
          -0.12345486589350622,
          -0.3132350927164008,
          0.0013466582383797505,
          0.0889360885616785,
          0.10137078685726747,
          -0.07126176833098398,
          -0.03562669655448724,
          -0.2570396062391325,
          0.016591372516353866,
          0.20498397870589236,
          -0.46977332959480145,
          0.019285576298800264,
          0.03578283383001621,
          -0.40654383663696303,
          0.024261737445392985,
          -0.04908130517019676,
          0.12455564567870799,
          0.11713576592333598,
          0.6089505033425433,
          0.19805579444192115,
          0.1939275273002997,
          -0.248974385036852
        ],
        [
          -0.543957520684712,
          0.18397884731390232,
          0.4244623142230426,
          -0.1750377248116967,
          0.10917377887970293,
          -0.18495356943951588,
          0.48460151303401433,
          0.3444020055716868,
          0.30194288052970564,
          -0.35361677227162314,
          0.310155857905589,
          0.021821279314021853,
          -0.06669934587277926,
          0.38583935336399927,
          -0.3474174939627876,
          0.11803053274165776,
          0.23161412759584168,
          0.4076513065186006,
          0.13073877041108853,
          0.06192487822831052,
          -0.14458414106282452,
          0.4089757098811006,
          0.1344822681914758,
          -0.42913626937353533,
          0.06282114057607434,
          -0.0846853830963432,
          -0.21825007164413968,
          -0.06303550581839683,
          -0.26245589826892907,
          0.12481756948686987,
          -0.17449944728038844,
          -0.13548771612597593,
          0.029286615297525995,
          -0.1938330982001741,
          -0.12106994409849364,
          0.3054479505307806,
          -0.0025682992710150147,
          0.044555599892514064,
          -0.00510059851156051,
          0.0585947946139594,
          0.1385644407491718,
          -0.2691203846512189,
          0.289295304918418,
          0.019951150297281943,
          0.37543007530313777,
          0.2535030698111406,
          0.3254554555318889,
          -0.2159599378999148
        ],
        [
          0.03531230400350656,
          0.1430506513165588,
          0.2805156316168305,
          0.08701446037607524,
          0.0502242587158959,
          0.49594681147362435,
          0.20909987150144416,
          0.48712773488533656,
          0.08328153510476347,
          0.13725029101418382,
          -0.05070009309397086,
          0.1643023170686399,
          0.006843594735083061,
          -0.24772395069466244,
          0.061723134714405374,
          -0.0355255999792199,
          0.3153390295858958,
          0.213427027359491,
          0.10130463712357475,
          -0.28988301486314844,
          -0.8395088359946173,
          0.08871859448451914,
          0.39845675379519235,
          0.27951870031587894,
          -0.18967483127080753,
          -0.0020805434401004485,
          0.0056210801983599444,
          -0.2639677676482866,
          -0.20528410874283495,
          0.10076764586073648,
          0.012314871155783145,
          -0.08255640095647047,
          -0.37040997440909645,
          0.5039552659763368,
          -0.15892655658623964,
          0.18145111861131205,
          0.08615397039112778,
          0.1643395950737673,
          0.06817705307374827,
          0.27801044405055947,
          -0.1294638908450602,
          -0.40725894081627523,
          0.402275894185659,
          0.01032222022366388,
          0.0038439095314385017,
          -0.12776706659551312,
          -0.08099214017389808,
          -0.3915904130695801
        ],
        [
          0.25417088526453663,
          0.08454342335639298,
          0.3932477598181937,
          -0.31926798551457375,
          0.1837312032830056,
          0.16768261234746712,
          0.3697589615196742,
          0.12510003720111973,
          0.009429515648812762,
          0.17330660943150977,
          -0.0065247541081723415,
          0.23997006923988304,
          -0.22846305286984678,
          -0.5900032868832333,
          0.05139251927013441,
          0.05735080070054825,
          -0.4581256183532824,
          0.26082677321345843,
          0.2775837354983522,
          -0.642051329889844,
          -0.055475063526253594,
          -0.11569338499380977,
          0.07051260546287802,
          0.19791034674225375,
          -0.3698784536611083,
          -0.06594263285962464,
          0.0051097239386181745,
          0.17457102045711306,
          -0.2875161399126509,
          -0.15453570520588092,
          0.30467794211801663,
          -0.1631047325934617,
          0.1580082273265657,
          -0.408758233587369,
          -0.06445828406848744,
          0.2312431117902083,
          -0.3142422383300649,
          0.028554171571553814,
          0.1921999428107392,
          -0.1205084482869172,
          0.2385793964406543,
          -0.21295279801148392,
          0.15708957385513972,
          -0.269613919784332,
          0.3397537401553364,
          -0.24549397060675607,
          -0.06654825914668223,
          0.024740568743217985
        ],
        [
          -0.18161482599768722,
          -0.09246700349565218,
          0.09731751498872446,
          0.22700657631266777,
          0.3291421135184045,
          -0.2849857953072998,
          -0.049417436763373936,
          0.25960903705161864,
          -0.08022778407050946,
          0.1474653494905875,
          -0.04787081029312388,
          -0.05127942077347159,
          -0.016476359574446084,
          -0.275956750814289,
          -0.10484036657170827,
          -0.050919631799640326,
          0.2644175132226776,
          0.07826421922859672,
          0.3847331289097554,
          0.16788300677680976,
          0.03162558767314838,
          -0.5230734000407967,
          0.1610363355801668,
          -0.12611296445859824,
          0.13757677160945925,
          -0.2489268770387987,
          0.09382096631902978,
          0.0921071299286266,
          0.28244009578203066,
          -0.6245232468254515,
          -0.3479677735102446,
          -0.010743364852726974,
          -0.14033947794666177,
          0.30831484334506054,
          0.4091735401616086,
          0.27828555921017,
          0.2623691601599354,
          0.21599881154002706,
          0.06599480988348372,
          -0.11473604509194148,
          -0.16195200117204356,
          0.26288410853205607,
          -0.0697217896616745,
          0.4771149553887943,
          0.13910616661095293,
          -0.26921800174075333,
          -0.22897524444203973,
          -0.035459187917832785
        ],
        [
          -0.5003617296083538,
          -0.22011433624011514,
          0.36760370692468197,
          0.20736571082297828,
          0.1111503104244358,
          0.03387941850692542,
          0.0505110612567253,
          0.06373640826031407,
          -0.3927911100784309,
          0.04438114988579823,
          -0.07144114988928317,
          -0.00012701644084592937,
          0.16956313280716193,
          0.3121669940347543,
          -0.5690001057454881,
          -0.03558940102709829,
          -0.12748118893148536,
          -0.17291845029880262,
          0.35187221420715414,
          0.48027076182546447,
          0.12588837457173072,
          -0.4398107701217771,
          0.18624633875620786,
          -0.049475689712104434,
          0.14053448547317107,
          0.0766050504566817,
          -0.24324769242420233,
          -0.15725916674128287,
          0.18868297817388918,
          0.10725632201984592,
          -0.28450056706854093,
          -0.060043180685891616,
          -0.22582200796044774,
          -0.41271446755755464,
          0.1576900472766249,
          0.05089891226187273,
          -0.133364877728411,
          0.4421866799999532,
          -0.45011720851441744,
          -0.19480950127742114,
          0.15815739480821403,
          -0.2984177274718388,
          -0.09983723855528631,
          0.4287428311394066,
          0.06731827096510644,
          0.25883442571610604,
          0.32744289551701955,
          -0.2180525528673216
        ],
        [
          0.32632808077137,
          -0.10994587758132604,
          -0.09552594723664098,
          -0.660606619610631,
          0.22716435477262858,
          -0.5436987070782452,
          0.1196438940581562,
          -0.041977944700461955,
          -0.09608179015008708,
          0.2496537802645119,
          -0.2042602404020879,
          -0.14271883932540202,
          -0.01811641439233945,
          -0.028933789145057794,
          -0.19762558712390466,
          0.24627169027069376,
          -0.268689880620792,
          -0.05075928787419152,
          0.20334483059827618,
          -0.29762221978813114,
          -0.3370079474094087,
          0.010175578585349457,
          -0.545304575791234,
          0.12272826900216532,
          0.48730339829844305,
          0.3901491256063276,
          0.22635362987723737,
          0.32541501007848445,
          0.3577039434578639,
          -0.14043083395989578,
          -0.5008752893144978,
          0.6804199566977432,
          -0.11776691971600217,
          -0.3861285827018607,
          0.14823536000434,
          -0.06071934560684924,
          0.128998050001623,
          0.21263589102715247,
          -0.11804894871330895,
          -0.5441654011179616,
          0.49588791042889735,
          -0.2056618259053424,
          0.2980071135339889,
          0.23837267163975737,
          0.40019111199706187,
          -0.30482800952373057,
          -0.08487059269909912,
          -0.2885853609473125
        ],
        [
          -0.22992485277894933,
          0.040867965462628865,
          -0.34064864882284135,
          -0.07820229228745122,
          -0.07157986636067519,
          -0.5127924287886724,
          0.2435740170847472,
          0.3357294811793989,
          -0.25088597844713134,
          0.08023911924480702,
          0.027082868562283015,
          -0.0561459103586588,
          -0.3009522931885885,
          0.3365270893080574,
          -0.28870945931542835,
          0.07116754714568475,
          0.3879276265929747,
          0.2870198052574195,
          0.18315216119835537,
          -0.01888341928990569,
          0.053771210120880736,
          -0.22291503772764032,
          0.14069956021261573,
          -0.8055298209861973,
          -0.04831240734880116,
          -0.10112300389355534,
          -0.24094624639139506,
          -0.16955566413747564,
          0.2655219031278895,
          -0.1621726000421659,
          -0.3250426199271328,
          0.2379080169361055,
          0.007402710034315808,
          0.13070858915024428,
          0.21732250702126724,
          0.032599073895941764,
          0.05956973535463998,
          0.18996768565992897,
          -0.351668247042111,
          -0.1644413330845256,
          0.6285604293548538,
          0.114207326554991,
          0.25860775778852957,
          0.4809116317863262,
          0.5244843703823133,
          -0.21392439453926432,
          0.20404420512319,
          -0.16338830171546576
        ],
        [
          0.0036864474346331153,
          0.1619346557145402,
          0.33072837948975364,
          -0.14690620742873856,
          -0.07762722093439926,
          -0.9751812211977687,
          0.3226461028332801,
          0.23410059985308923,
          0.24965319975857309,
          -0.3370675251991459,
          0.080994520536096,
          -0.014491561608884094,
          -0.13766276415577242,
          0.09669584425429098,
          0.0984201195864276,
          0.01074847250278303,
          -0.07625370363224111,
          -0.057322966975772875,
          -0.11990614596794105,
          0.029277483842234102,
          -0.11385877781449093,
          0.24179213420872592,
          0.27448710786002634,
          -0.5885108087537348,
          0.3301386075700129,
          0.14330666684891777,
          -0.4843227190478611,
          -0.328030323803306,
          -0.19717936861853835,
          0.4300938709113814,
          -0.1182398902346227,
          -0.2194651879305047,
          0.5011940118787085,
          -0.20423432622531204,
          -0.05735335830699413,
          0.027316364772497926,
          0.12623044962110183,
          0.21939737319834016,
          -0.1908048904158771,
          0.09933690980854971,
          -0.0504159922795073,
          -0.6060460396379798,
          0.15487290658647157,
          0.31364153634627673,
          0.047129324315635504,
          0.09447516705643848,
          -0.024438151800566847,
          -0.28408471968150817
        ],
        [
          -0.2328737200636485,
          0.2820266178199383,
          0.19771009820446522,
          0.27115387415321274,
          -0.2106891530553833,
          0.2406489000022146,
          0.5047654478762557,
          0.15283855425171694,
          0.038855990734322776,
          0.26428876234372234,
          0.15940883356861835,
          0.1239797571384092,
          -0.621364764308875,
          -0.32911488918485443,
          -0.27248161198335225,
          0.024182296964934322,
          0.10470164396098217,
          0.06744510848927089,
          -0.20088270649950285,
          0.08276204255554255,
          -0.7947153725001868,
          0.07110588620322877,
          0.19048537985086444,
          0.2494885539043709,
          0.09334182342983195,
          -0.37957199350614673,
          0.14390406596119357,
          -0.0700824657487274,
          -0.6307722350630186,
          -0.17326545466660562,
          0.19982734923806603,
          -0.5619050734285417,
          0.17402244326969218,
          0.11376168465808627,
          -0.16691989364653842,
          0.39713897984600893,
          -0.22316038065110808,
          0.3137836141207868,
          0.3749955545693808,
          0.6272196459418342,
          0.25163806128050353,
          -0.023963076297282896,
          0.25466532530307445,
          -0.02797436092755226,
          -0.09473468774895491,
          0.291025077886791,
          0.12156507660350381,
          -0.4723443950665452
        ],
        [
          -0.3051611716885877,
          0.4204308005764775,
          0.12900250428659335,
          0.08392333954209343,
          0.12438003152220714,
          0.20842118110069716,
          0.13896205373133133,
          0.28961927014591193,
          0.23462104304114395,
          0.3414890447019283,
          0.23917007404613286,
          -0.07525758937319241,
          -0.01567272791179405,
          -0.2790333711345277,
          0.05449431157161853,
          0.15496649358702183,
          0.09458172181563008,
          0.07273053939954258,
          0.06002576711285257,
          0.16639873971986624,
          -0.2449189144972856,
          0.28223930493286065,
          0.4263726903433729,
          0.26209740863471376,
          -0.15799472531945044,
          0.02536167658435295,
          0.14739110353856105,
          0.08076106982765092,
          -0.06467475156858829,
          -0.9003690837660829,
          -0.18078654880886447,
          0.41006291998582006,
          -0.10280433113067489,
          -0.10274272427872906,
          -0.06647351571339684,
          0.19292898082976193,
          0.14373839452774617,
          0.40687901772827945,
          0.04874179686095324,
          0.014636108352951815,
          -0.145627016158526,
          -0.48355316384063163,
          -0.23251377189700717,
          -0.13892354368931806,
          -0.18268634991064797,
          0.1473277741313229,
          -0.3130099394872513,
          -0.3138006861060743
        ],
        [
          0.6154389713836711,
          0.4764998601373529,
          0.2388793294025713,
          -0.09449361410608609,
          -0.3864551156816209,
          -0.11061028927117747,
          0.03221266475142915,
          0.35085243905307684,
          0.11005196849436256,
          0.23636475232652035,
          0.17936076523159764,
          -0.30002376804951303,
          0.19937748230222263,
          -0.27637703666039265,
          -0.39232699676368743,
          -0.08907167922675319,
          -0.34938836890307295,
          0.08814178173944036,
          0.42036265876469014,
          0.21101377649110428,
          0.3088975549321909,
          0.09055342762331171,
          0.09780291626929284,
          -0.13010550138782273,
          0.11042295700463733,
          -0.20249636548861763,
          0.22031130217354045,
          -0.04572916672430816,
          0.16287960768742293,
          -0.3687877740241675,
          -0.32154486485174427,
          0.10395113544729839,
          -0.398843658602725,
          -0.4095461739977583,
          0.5315063635632178,
          0.2095080264898605,
          -0.12886382059361337,
          0.03742331754418121,
          0.08721525922893862,
          -0.33328020076044146,
          -0.036879597917502734,
          0.6993064079350464,
          0.10152892219238277,
          -0.05779929011199052,
          -0.15463345657794594,
          0.14432365141717055,
          -0.47528037683338065,
          0.02593383895990661
        ],
        [
          -0.21513801445464995,
          0.14262138291476614,
          0.03281503758547631,
          0.0004086808969181032,
          0.1874668869464545,
          0.08749277147273045,
          -0.048894019792400024,
          -0.021598754569371794,
          0.401430689970368,
          -0.39396539218511006,
          0.037960727615304564,
          -0.5669966127350367,
          -0.03940506428107037,
          0.19206297568264666,
          0.043881871578883694,
          -0.3212175295618391,
          0.3470217063691623,
          0.4630807452782197,
          0.30145769827197316,
          0.30731020921904456,
          -0.1539570420178577,
          0.055776287204559516,
          0.0659319353377884,
          -0.21216656851567797,
          0.22465768620682908,
          -0.03460230559412138,
          -0.2314861232746788,
          -0.5390756568879451,
          0.053711519093331044,
          -0.2550931934144093,
          -0.26003449244023913,
          -0.36648216817034246,
          0.1863325097214107,
          -0.11450822328666221,
          0.07890135686762928,
          -0.25149216811499214,
          0.4568511442112273,
          -0.2568744420688738,
          0.187419687789038,
          -0.14213051573984684,
          0.2421398660209239,
          -0.10280382423046719,
          -0.36373913783478623,
          0.14361592185984834,
          -0.20874551878862682,
          0.11420122168203142,
          -0.2016729973417666,
          0.004138901674193469
        ]
      ],
      "biases": [
        [
          -0.022333176420180758,
          0.28835116440059455,
          0.2894105404261582,
          0.16922748362575804,
          0.0475950323601008,
          0.3492728129263215,
          0.10988095351792639,
          -0.226009604627773,
          0.04140431419929011,
          0.11967123824399455,
          0.140390812226485,
          0.20827116141268026,
          -0.06668290988187044,
          -0.016688542560354198,
          0.07091920915728167,
          -0.18234040781932428,
          0.12471558904330987,
          0.040412320071403704,
          -0.05458974226267807,
          0.24802906878122663,
          0.17161307412647642,
          0.15756595942350837,
          0.20695209618580054,
          0.4114744405205733,
          -0.09271462872762307,
          0.1811287860305238,
          0.02377455048776533,
          -0.09664405147650829,
          -0.1813697186982013,
          0.2594499172827733,
          0.3440169442693089,
          -0.008631241106527824,
          -0.09703384898116874,
          0.011602061081901505,
          -0.3332450239034817,
          0.06373075023181947,
          -0.2930237355673741,
          0.2566550073247483,
          0.0271860251321126,
          0.13381924478442359,
          -0.04140833781741089,
          0.05843121780131683,
          -0.017638361285618208,
          -0.10215281031803894,
          0.08376232301328171,
          -0.009519277493876347,
          0.2004481219553388,
          0.06970281112051512
        ]
      ]
    },
    {
      "weights": [
        [
          -0.3500531490721627,
          0.07205908032564906,
          -0.23959381477567834,
          0.49907714533890246,
          0.1748988072118139,
          0.7209827582389142,
          -0.44327052468922423,
          -0.4024447848748322,
          -0.28793041122422885,
          -0.3535678139889014,
          -0.2965322596272841,
          0.28386691097546685,
          0.02824630459965784,
          -0.39912566389752274,
          -0.7866515364710046,
          -0.20718652779960892,
          0.5274352974357222,
          0.4889280770047694,
          -0.03915080341414033,
          0.01727619464250524,
          0.1681620704933406,
          -0.6747157047636517,
          -0.41480817626117367,
          0.3239457456163848,
          -0.2965889698290417,
          0.24562215036391263,
          0.004879560854595993,
          -0.3870659060499819,
          -0.5719393054499703,
          -0.19589650137015296,
          -0.5220378712953957,
          0.03228909880207194
        ],
        [
          -0.21319052569078936,
          -0.2648350684481019,
          -0.1996222829057181,
          -0.33071415239329877,
          -0.23181269551734662,
          -0.5553170410643414,
          0.04060200905359815,
          0.1017081902027753,
          -0.1647794679153547,
          -0.07588730802614942,
          -0.3390972465979263,
          0.026429694585587523,
          0.005121799664217552,
          0.2642783547737292,
          0.3415468685399281,
          0.37552982488793885,
          0.12296437090673741,
          -0.21237424296103075,
          0.1841722125100876,
          0.1195910868087986,
          0.029335779346931642,
          0.5474009103301819,
          -0.21032802855701627,
          -0.08995400088596602,
          0.7339174130486502,
          0.11516788522062234,
          -0.15433919929741846,
          0.39921872632456545,
          0.3272414296764975,
          0.18800808864068216,
          0.02099138667736194,
          -0.00424772093539056
        ],
        [
          0.37994670338599207,
          -0.29936546862435154,
          0.5588642175493682,
          0.24252980697764343,
          0.4328286802187726,
          -0.12595652324038178,
          -0.08232990068789907,
          0.5123658807852175,
          0.22460238396818283,
          0.4849265100515374,
          -0.006183626165575338,
          0.2941837836915747,
          -0.34288485641154887,
          0.13636227323362263,
          0.4807503352909811,
          -0.44617134185257057,
          -0.0851958087526728,
          0.29045208155043667,
